{"learner":{"attributes":{"scikit_learn":"{\"_estimator_type\": \"regressor\"}"},"feature_names":["total_spend","txn_count","spend_mean_30d","spend_volatility_30d","spend_cv_30d","spend_txn_count_30d","max_daily_spend_30d","spend_mean_30d_lag1","spend_volatility_30d_lag1","spend_cv_30d_lag1","essential_ratio_30d","non_essential_spend_30d","non_essential_spend_vol_30d","disc_active_days_30d","total_spend_30d","top_merchant_spend_ratio","bank_spend_30d","card_spend_share_30d","card_to_bank_spend_ratio_30d","spend_trend_w2_vs_w1","spend_volatility_trend_7d","frequent_small_txn_ratio","merchant_churn_rate","w1_distress_ratio","ewa_usage_count","ewa_total_amount","ewa_avg_amount","ewa_max_amount","ewa_avg_income_rate","ewa_min_income_rate","ewa_contract_FullTimeHourly","ewa_contract_FullTimeSalaried","ewa_contract_PartTimeHourly","ewa_contract_PartTimeSalaried"],"feature_types":["float","float","float","float","float","float","float","float","float","float","float","float","float","float","float","float","float","float","float","float","float","float","float","float","float","float","float","float","float","float","float","float","float","float"],"gradient_booster":{"model":{"gbtree_model_param":{"num_parallel_tree":"1","num_trees":"300"},"iteration_indptr":[0,1,2,3,4,5,6,7,8,9,10,11,12,13,14,15,16,17,18,19,20,21,22,23,24,25,26,27,28,29,30,31,32,33,34,35,36,37,38,39,40,41,42,43,44,45,46,47,48,49,50,51,52,53,54,55,56,57,58,59,60,61,62,63,64,65,66,67,68,69,70,71,72,73,74,75,76,77,78,79,80,81,82,83,84,85,86,87,88,89,90,91,92,93,94,95,96,97,98,99,100,101,102,103,104,105,106,107,108,109,110,111,112,113,114,115,116,117,118,119,120,121,122,123,124,125,126,127,128,129,130,131,132,133,134,135,136,137,138,139,140,141,142,143,144,145,146,147,148,149,150,151,152,153,154,155,156,157,158,159,160,161,162,163,164,165,166,167,168,169,170,171,172,173,174,175,176,177,178,179,180,181,182,183,184,185,186,187,188,189,190,191,192,193,194,195,196,197,198,199,200,201,202,203,204,205,206,207,208,209,210,211,212,213,214,215,216,217,218,219,220,221,222,223,224,225,226,227,228,229,230,231,232,233,234,235,236,237,238,239,240,241,242,243,244,245,246,247,248,249,250,251,252,253,254,255,256,257,258,259,260,261,262,263,264,265,266,267,268,269,270,271,272,273,274,275,276,277,278,279,280,281,282,283,284,285,286,287,288,289,290,291,292,293,294,295,296,297,298,299,300],"tree_info":[0,0,0,0,0,0,0,0,0,0,0,0,0,0,0,0,0,0,0,0,0,0,0,0,0,0,0,0,0,0,0,0,0,0,0,0,0,0,0,0,0,0,0,0,0,0,0,0,0,0,0,0,0,0,0,0,0,0,0,0,0,0,0,0,0,0,0,0,0,0,0,0,0,0,0,0,0,0,0,0,0,0,0,0,0,0,0,0,0,0,0,0,0,0,0,0,0,0,0,0,0,0,0,0,0,0,0,0,0,0,0,0,0,0,0,0,0,0,0,0,0,0,0,0,0,0,0,0,0,0,0,0,0,0,0,0,0,0,0,0,0,0,0,0,0,0,0,0,0,0,0,0,0,0,0,0,0,0,0,0,0,0,0,0,0,0,0,0,0,0,0,0,0,0,0,0,0,0,0,0,0,0,0,0,0,0,0,0,0,0,0,0,0,0,0,0,0,0,0,0,0,0,0,0,0,0,0,0,0,0,0,0,0,0,0,0,0,0,0,0,0,0,0,0,0,0,0,0,0,0,0,0,0,0,0,0,0,0,0,0,0,0,0,0,0,0,0,0,0,0,0,0,0,0,0,0,0,0,0,0,0,0,0,0,0,0,0,0,0,0,0,0,0,0,0,0,0,0,0,0,0,0,0,0,0,0,0,0,0,0,0,0,0,0,0,0,0,0,0,0],"trees":[{"base_weights":[-9.686751E-3,-7.301904E-1,1.0087085E0,-9.382141E-1,-2.7330068E-1,6.5959597E-1,1.7540797E0,-9.8881143E-1,-6.2362826E-1,-3.8332644E-1,-4.71338E-3,3.3747634E-1,9.2525965E-1,1.4688103E0,1.896398E0,-4.987167E-2,2.478483E-3,-3.1723447E-2,2.7023016E-2,-2.4887051E-2,-8.17735E-3,-6.6257543E-3,1.6026584E-2,1.0982299E-2,2.771688E-2,3.6629956E-2,5.890925E-2,6.464038E-2,8.789312E-2,9.534293E-2,-3.842844E-2],"categories":[],"categories_nodes":[],"categories_segments":[],"categories_sizes":[],"default_left":[0,0,0,0,0,0,0,0,0,0,0,0,0,0,0,0,0,0,0,0,0,0,0,0,0,0,0,0,0,0,0],"id":0,"left_children":[1,3,5,7,9,11,13,15,17,19,21,23,25,27,29,-1,-1,-1,-1,-1,-1,-1,-1,-1,-1,-1,-1,-1,-1,-1,-1],"loss_changes":[4.900035E3,3.714602E2,7.188677E2,4.2153076E1,3.6198807E1,1.6108313E2,3.302246E1,2.0757324E1,5.075226E0,2.1770447E1,1.4881852E1,2.1700363E1,4.9473633E1,1.2887817E1,1.7773682E1,0E0,0E0,0E0,0E0,0E0,0E0,0E0,0E0,0E0,0E0,0E0,0E0,0E0,0E0,0E0,0E0],"parents":[2147483647,0,0,1,1,2,2,3,3,4,4,5,5,6,6,7,7,8,8,9,9,10,10,11,11,12,12,13,13,14,14],"right_children":[2,4,6,8,10,12,14,16,18,20,22,24,26,28,30,-1,-1,-1,-1,-1,-1,-1,-1,-1,-1,-1,-1,-1,-1,-1,-1],"split_conditions":[7E0,2.01E2,2.6E1,7.241069E2,1.077E3,1.3E1,3.2E1,4E0,1.0238095E1,-1.6372883E-1,6E0,2.15726E3,2.758E3,1.2222222E2,6E0,-4.987167E-2,2.478483E-3,-3.1723447E-2,2.7023016E-2,-2.4887051E-2,-8.17735E-3,-6.6257543E-3,1.6026584E-2,1.0982299E-2,2.771688E-2,3.6629956E-2,5.890925E-2,6.464038E-2,8.789312E-2,9.534293E-2,-3.842844E-2],"split_indices":[24,25,24,19,25,24,24,24,13,19,24,25,25,26,1,0,0,0,0,0,0,0,0,0,0,0,0,0,0,0,0],"split_type":[0,0,0,0,0,0,0,0,0,0,0,0,0,0,0,0,0,0,0,0,0,0,0,0,0,0,0,0,0,0,0],"sum_hessian":[6.676E3,3.91E3,2.766E3,2.686E3,1.224E3,1.885E3,8.81E2,2.312E3,3.74E2,8.68E2,3.56E2,8.53E2,1.032E3,2.97E2,5.84E2,2.293E3,1.9E1,3.71E2,3E0,5.7E2,2.98E2,2.56E2,1E2,5.54E2,2.99E2,5.88E2,4.44E2,1.88E2,1.09E2,5.82E2,2E0],"tree_param":{"num_deleted":"0","num_feature":"34","num_nodes":"31","size_leaf_vector":"1"}},{"base_weights":[1.0629746E-3,-6.803816E-1,9.071463E-1,-8.9831525E-1,-2.0778213E-1,1.2149566E0,4.4848317E-1,-9.499256E-1,-5.796693E-1,1.4361861E-1,-4.424065E-1,8.7362677E-1,1.6643243E0,5.759444E-2,9.298699E-1,-4.845574E-2,-3.945351E-2,-2.410833E-2,-3.7904385E-2,-2.844818E-3,2.2389255E-2,-2.7949318E-2,-1.095283E-2,7.962314E-2,3.6264386E-2,7.566198E-2,9.466319E-2,-6.450963E-3,1.704674E-2,5.6031775E-2,2.9531697E-2],"categories":[],"categories_nodes":[],"categories_segments":[],"categories_sizes":[],"default_left":[0,0,0,0,0,0,0,0,0,0,0,0,0,0,0,0,0,0,0,0,0,0,0,0,0,0,0,0,0,0,0],"id":1,"left_children":[1,3,5,7,9,11,13,15,17,19,21,23,25,27,29,-1,-1,-1,-1,-1,-1,-1,-1,-1,-1,-1,-1,-1,-1,-1,-1],"loss_changes":[4.1671396E3,3.9655127E2,4.0845728E2,4.279956E1,1.00401764E2,2.6435815E2,2.1916289E2,6.232788E0,6.0710907E0,2.9788565E1,1.888536E1,1.0409027E2,2.2973389E1,3.409561E1,3.311914E1,0E0,0E0,0E0,0E0,0E0,0E0,0E0,0E0,0E0,0E0,0E0,0E0,0E0,0E0,0E0,0E0],"parents":[2147483647,0,0,1,1,2,2,3,3,4,4,5,5,6,6,7,7,8,8,9,9,10,10,11,11,12,12,13,13,14,14],"right_children":[2,4,6,8,10,12,14,16,18,20,22,24,26,28,30,-1,-1,-1,-1,-1,-1,-1,-1,-1,-1,-1,-1,-1,-1,-1,-1],"split_conditions":[9.4E2,1.7E2,1.9625E2,7.241069E2,9.98E1,2.642E3,3.03E3,2E1,1.5294118E0,5.4E2,-2.695828E-1,5.5E1,3.891E3,2.07E3,3.59625E2,-4.845574E-2,-3.945351E-2,-2.410833E-2,-3.7904385E-2,-2.844818E-3,2.2389255E-2,-2.7949318E-2,-1.095283E-2,7.962314E-2,3.6264386E-2,7.566198E-2,9.466319E-2,-6.450963E-3,1.704674E-2,5.6031775E-2,2.9531697E-2],"split_indices":[25,25,26,19,26,25,25,27,1,25,19,26,25,25,26,0,0,0,0,0,0,0,0,0,0,0,0,0,0,0,0],"split_type":[0,0,0,0,0,0,0,0,0,0,0,0,0,0,0,0,0,0,0,0,0,0,0,0,0,0,0,0,0,0,0],"sum_hessian":[6.747E3,3.851E3,2.896E3,2.635E3,1.216E3,1.732E3,1.164E3,2.266E3,3.69E2,4.87E2,7.29E2,9.86E2,7.46E2,6.43E2,5.21E2,2.02E3,2.46E2,2.41E2,1.28E2,2.94E2,1.93E2,4.78E2,2.51E2,1.67E2,8.19E2,4.54E2,2.92E2,3.88E2,2.55E2,3.32E2,1.89E2],"tree_param":{"num_deleted":"0","num_feature":"34","num_nodes":"31","size_leaf_vector":"1"}},{"base_weights":[-1.3130649E-4,-5.92777E-1,8.993246E-1,-8.572199E-1,-1.388182E-1,1.1562684E0,4.6013916E-1,-9.0829676E-1,-5.382372E-1,1.7765324E-1,-3.412626E-1,8.5191345E-1,1.5424733E0,1.1976103E-1,8.655904E-1,-4.59813E-2,-3.0264238E-2,1.1288302E-2,-2.8635431E-2,-3.1666353E-3,2.3621714E-2,-2.2512075E-2,-8.261341E-3,6.1226677E-2,2.8895665E-2,6.7815244E-2,8.4182695E-2,1.39222415E-2,-3.3195147E-3,3.9410956E-2,7.9737276E-2],"categories":[],"categories_nodes":[],"categories_segments":[],"categories_sizes":[],"default_left":[0,0,0,0,0,0,0,0,0,0,0,0,0,0,0,0,0,0,0,0,0,0,0,0,0,0,0,0,0,0,0],"id":2,"left_children":[1,3,5,7,9,11,13,15,17,19,21,23,25,27,29,-1,-1,-1,-1,-1,-1,-1,-1,-1,-1,-1,-1,-1,-1,-1,-1],"loss_changes":[3.5645635E3,4.837871E2,2.99187E2,4.1008545E1,9.520141E1,1.9557104E2,1.3541895E2,6.9752197E0,9.452339E0,4.123201E1,1.7306488E1,9.516229E1,1.708728E1,1.5821957E1,2.4017181E1,0E0,0E0,0E0,0E0,0E0,0E0,0E0,0E0,0E0,0E0,0E0,0E0,0E0,0E0,0E0,0E0],"parents":[2147483647,0,0,1,1,2,2,3,3,4,4,5,5,6,6,7,7,8,8,9,9,10,10,11,11,12,12,13,13,14,14],"right_children":[2,4,6,8,10,12,14,16,18,20,22,24,26,28,30,-1,-1,-1,-1,-1,-1,-1,-1,-1,-1,-1,-1,-1,-1,-1,-1],"split_conditions":[1.143E3,1.5E2,2.0966667E2,7.241069E2,9.98E1,2.758E3,3.16E3,1E2,1.4285713E-1,5.5E2,-4.2743686E-1,9.1833336E1,3.582E3,5.05E2,7.35E3,-4.59813E-2,-3.0264238E-2,1.1288302E-2,-2.8635431E-2,-3.1666353E-3,2.3621714E-2,-2.2512075E-2,-8.261341E-3,6.1226677E-2,2.8895665E-2,6.7815244E-2,8.4182695E-2,1.39222415E-2,-3.3195147E-3,3.9410956E-2,7.9737276E-2],"split_indices":[25,25,26,19,26,25,25,25,22,25,19,26,25,27,25,0,0,0,0,0,0,0,0,0,0,0,0,0,0,0,0],"split_type":[0,0,0,0,0,0,0,0,0,0,0,0,0,0,0,0,0,0,0,0,0,0,0,0,0,0,0,0,0,0,0],"sum_hessian":[6.685E3,4.03E3,2.655E3,2.546E3,1.484E3,1.674E3,9.81E2,2.193E3,3.53E2,5.79E2,9.05E2,9.38E2,7.36E2,5.34E2,4.47E2,2.112E3,8.1E1,1.5E1,3.38E2,3.19E2,2.6E2,5.58E2,3.47E2,3.96E2,5.42E2,3.22E2,4.14E2,2.88E2,2.46E2,4.06E2,4.1E1],"tree_param":{"num_deleted":"0","num_feature":"34","num_nodes":"31","size_leaf_vector":"1"}},{"base_weights":[1.3964027E-3,-5.972195E-1,9.389677E-1,-7.9987985E-1,-1.9851513E-1,6.180376E-1,1.5385338E0,-8.3032346E-1,-4.8285103E-1,-3.5254338E-1,9.55105E-3,3.0230027E-1,7.787172E-1,1.3931733E0,1.7650051E0,-4.2754635E-2,-2.6910385E-2,1.9485755E-2,-2.5730968E-2,-2.024549E-2,2.0584892E-3,-1.6162653E-2,5.0967904E-3,1.9593557E-2,-8.9694625E-3,1.7245857E-2,4.333879E-2,6.5385066E-2,7.801311E-2,8.9124404E-2,-1.0082048E-2],"categories":[],"categories_nodes":[],"categories_segments":[],"categories_sizes":[],"default_left":[0,0,0,0,0,0,0,0,0,0,0,0,0,0,0,0,0,0,0,0,0,0,0,0,0,0,0,0,0,0,0],"id":3,"left_children":[1,3,5,7,9,11,13,15,17,19,21,23,25,27,29,-1,-1,-1,-1,-1,-1,-1,-1,-1,-1,-1,-1,-1,-1,-1,-1],"loss_changes":[3.7620254E3,3.304004E2,5.0164697E2,2.5774048E1,4.422971E1,8.616211E1,2.7498291E1,1.7433105E1,6.85334E0,1.6366226E1,1.8111612E1,2.492202E1,4.2790405E1,5.942993E0,1.2462158E1,0E0,0E0,0E0,0E0,0E0,0E0,0E0,0E0,0E0,0E0,0E0,0E0,0E0,0E0,0E0,0E0],"parents":[2147483647,0,0,1,1,2,2,3,3,4,4,5,5,6,6,7,7,8,8,9,9,10,10,11,11,12,12,13,13,14,14],"right_children":[2,4,6,8,10,12,14,16,18,20,22,24,26,28,30,-1,-1,-1,-1,-1,-1,-1,-1,-1,-1,-1,-1,-1,-1,-1,-1],"split_conditions":[8E0,2E0,2.6E1,3.454869E2,5E0,1.2E1,4E1,1.4954546E2,7.8947365E-2,4.37925E7,1.7E1,7.133333E0,6.828571E1,2.248E1,7.208628E-1,-4.2754635E-2,-2.6910385E-2,1.9485755E-2,-2.5730968E-2,-2.024549E-2,2.0584892E-3,-1.6162653E-2,5.0967904E-3,1.9593557E-2,-8.9694625E-3,1.7245857E-2,4.333879E-2,6.5385066E-2,7.801311E-2,8.9124404E-2,-1.0082048E-2],"split_indices":[24,24,24,20,24,24,24,26,22,20,28,13,26,28,10,0,0,0,0,0,0,0,0,0,0,0,0,0,0,0,0],"split_type":[0,0,0,0,0,0,0,0,0,0,0,0,0,0,0,0,0,0,0,0,0,0,0,0,0,0,0,0,0,0,0],"sum_hessian":[6.701E3,4.09E3,2.611E3,2.711E3,1.379E3,1.702E3,9.09E2,2.472E3,2.39E2,7.92E2,5.87E2,5.75E2,1.127E3,5.58E2,3.51E2,2.277E3,1.95E2,8E0,2.31E2,6.99E2,9.3E1,1.27E2,4.6E2,4.85E2,9E1,1.91E2,9.36E2,3.75E2,1.83E2,3.48E2,3E0],"tree_param":{"num_deleted":"0","num_feature":"34","num_nodes":"31","size_leaf_vector":"1"}},{"base_weights":[1.4538477E-2,-6.285874E-1,7.9734975E-1,-7.771896E-1,-2.7849168E-1,5.039038E-1,1.4606899E0,-8.24676E-1,-4.8048356E-1,-3.3784974E-1,9.189169E-2,2.3751418E-1,7.1781635E-1,1.367886E0,1.8477721E0,-4.2507462E-2,-3.5747286E-2,-2.5890216E-2,-3.3849056E-3,-2.3155283E-2,-7.395886E-3,5.912099E-2,3.1099166E-3,1.8666247E-2,1.7034331E-3,2.2971874E-2,4.4600375E-2,6.9147795E-2,1.1212715E-2,9.333422E-2,-3.7019946E-2],"categories":[],"categories_nodes":[],"categories_segments":[],"categories_sizes":[],"default_left":[0,0,0,0,0,0,0,0,0,0,0,0,0,0,0,0,0,0,0,0,0,0,0,0,0,0,0,0,0,0,0],"id":4,"left_children":[1,3,5,7,9,11,13,15,17,19,21,23,25,27,29,-1,-1,-1,-1,-1,-1,-1,-1,-1,-1,-1,-1,-1,-1,-1,-1],"loss_changes":[3.3866804E3,1.9191199E2,5.898458E2,3.6123657E1,2.4258774E1,1.19781006E2,3.0880615E1,5.633789E0,5.5109177E0,2.2532112E1,4.8808165E0,2.5931934E1,5.211371E1,1.268457E1,1.0045898E1,0E0,0E0,0E0,0E0,0E0,0E0,0E0,0E0,0E0,0E0,0E0,0E0,0E0,0E0,0E0,0E0],"parents":[2147483647,0,0,1,1,2,2,3,3,4,4,5,5,6,6,7,7,8,8,9,9,10,10,11,11,12,12,13,13,14,14],"right_children":[2,4,6,8,10,12,14,16,18,20,22,24,26,28,30,-1,-1,-1,-1,-1,-1,-1,-1,-1,-1,-1,-1,-1,-1,-1,-1],"split_conditions":[6E0,1.6E2,2.6E1,5.2442593E1,2.9766247E0,1.2E1,4.9E1,5.5969E2,4.6666665E0,4E0,7.8947365E-2,5.3076925E0,2.045E3,9.7018915E-1,5.3568896E8,-4.2507462E-2,-3.5747286E-2,-2.5890216E-2,-3.3849056E-3,-2.3155283E-2,-7.395886E-3,5.912099E-2,3.1099166E-3,1.8666247E-2,1.7034331E-3,2.2971874E-2,4.4600375E-2,6.9147795E-2,1.1212715E-2,9.333422E-2,-3.7019946E-2],"split_indices":[24,25,24,19,19,24,24,16,13,24,22,13,25,17,20,0,0,0,0,0,0,0,0,0,0,0,0,0,0,0,0],"split_type":[0,0,0,0,0,0,0,0,0,0,0,0,0,0,0,0,0,0,0,0,0,0,0,0,0,0,0,0,0,0,0],"sum_hessian":[6.725E3,3.692E3,3.033E3,2.591E3,1.101E3,2.104E3,9.29E2,2.232E3,3.59E2,9.49E2,1.52E2,9.38E2,1.166E3,7.53E2,1.76E2,1.806E3,4.26E2,3.29E2,3E1,5.71E2,3.78E2,3E0,1.49E2,5.62E2,3.76E2,4.71E2,6.95E2,7.43E2,1E1,1.75E2,1E0],"tree_param":{"num_deleted":"0","num_feature":"34","num_nodes":"31","size_leaf_vector":"1"}},{"base_weights":[-5.237181E-3,-5.436166E-1,7.4799836E-1,-7.478912E-1,-1.3667095E-1,4.5228928E-1,1.0493267E0,-7.84912E-1,-5.005617E-1,2.4506512E-1,-2.147077E-1,8.259759E-1,2.0999403E-1,1.3448836E0,8.006733E-1,-4.022972E-2,-2.8645722E-2,-1.947025E-2,-3.2256905E-2,-9.054697E-3,1.7810676E-2,-6.3692774E-3,-2.0155845E-2,2.1499759E-2,5.127378E-2,1.563835E-2,-4.4311527E-3,7.699279E-2,5.8773722E-2,3.325858E-2,5.7587307E-2],"categories":[],"categories_nodes":[],"categories_segments":[],"categories_sizes":[],"default_left":[0,0,0,0,0,0,0,0,0,0,0,0,0,0,0,0,0,0,0,0,0,0,0,0,0,0,0,0,0,0,0],"id":5,"left_children":[1,3,5,7,9,11,13,15,17,19,21,23,25,27,29,-1,-1,-1,-1,-1,-1,-1,-1,-1,-1,-1,-1,-1,-1,-1,-1],"loss_changes":[2.7377107E3,3.271753E2,2.5026831E2,2.3605957E1,3.9285316E1,1.28578E2,1.0129651E2,9.044189E0,5.2770767E0,1.0674694E1,1.7947464E1,4.3718933E1,2.6543663E1,1.916394E1,3.534024E1,0E0,0E0,0E0,0E0,0E0,0E0,0E0,0E0,0E0,0E0,0E0,0E0,0E0,0E0,0E0,0E0],"parents":[2147483647,0,0,1,1,2,2,3,3,4,4,5,5,6,6,7,7,8,8,9,9,10,10,11,11,12,12,13,13,14,14],"right_children":[2,4,6,8,10,12,14,16,18,20,22,24,26,28,30,-1,-1,-1,-1,-1,-1,-1,-1,-1,-1,-1,-1,-1,-1,-1,-1],"split_conditions":[1.009E3,1.6E2,2.642E3,1.89903E4,1.11111104E-1,2.59E2,4.32E2,1E0,1.4883721E0,1.025641E-1,2.94E2,1.4E3,5.13E2,2.85E2,7.866667E0,-4.022972E-2,-2.8645722E-2,-1.947025E-2,-3.2256905E-2,-9.054697E-3,1.7810676E-2,-6.3692774E-3,-2.0155845E-2,2.1499759E-2,5.127378E-2,1.563835E-2,-4.4311527E-3,7.699279E-2,5.8773722E-2,3.325858E-2,5.7587307E-2],"split_indices":[25,25,25,19,22,27,27,30,1,21,27,25,27,27,13,0,0,0,0,0,0,0,0,0,0,0,0,0,0,0,0],"split_type":[0,0,0,0,0,0,0,0,0,0,0,0,0,0,0,0,0,0,0,0,0,0,0,0,0,0,0,0,0,0,0],"sum_hessian":[6.749E3,3.936E3,2.813E3,2.62E3,1.316E3,1.421E3,1.392E3,2.277E3,3.43E2,2.23E2,1.093E3,5.58E2,8.63E2,6.34E2,7.58E2,2.081E3,1.96E2,1.96E2,1.47E2,4.6E1,1.77E2,7.48E2,3.45E2,1.88E2,3.7E2,6.42E2,2.21E2,2.91E2,3.43E2,5.49E2,2.09E2],"tree_param":{"num_deleted":"0","num_feature":"34","num_nodes":"31","size_leaf_vector":"1"}},{"base_weights":[7.4166628E-3,-5.443599E-1,7.631038E-1,-7.085078E-1,-2.2974525E-1,4.9086744E-1,1.3382509E0,-7.453013E-1,-4.985096E-1,-3.546698E-1,-7.4780114E-2,2.4959783E-1,6.898897E-1,1.2941904E0,2.0237873E0,-3.9238732E-2,-3.2707125E-2,1.3701417E-2,-2.5788357E-2,-2.168203E-2,2.8881999E-3,-9.157169E-3,4.5770705E-3,1.7517228E-2,-2.1911212E-3,1.137943E-2,3.8541116E-2,6.5180376E-2,-2.8371109E-2,1.049637E-1,5.4129746E-2],"categories":[],"categories_nodes":[],"categories_segments":[],"categories_sizes":[],"default_left":[0,0,0,0,0,0,0,0,0,0,0,0,0,0,0,0,0,0,0,0,0,0,0,0,0,0,0,0,0,0,0],"id":6,"left_children":[1,3,5,7,9,11,13,15,17,19,21,23,25,27,29,-1,-1,-1,-1,-1,-1,-1,-1,-1,-1,-1,-1,-1,-1,-1,-1],"loss_changes":[2.7911985E3,1.9964526E2,4.4167004E2,1.9269531E1,2.5682167E1,9.197446E1,2.4776855E1,7.2626953E0,5.234207E0,2.396415E1,1.0722514E1,2.5703968E1,3.914792E1,1.5728516E1,1.4928436E0,0E0,0E0,0E0,0E0,0E0,0E0,0E0,0E0,0E0,0E0,0E0,0E0,0E0,0E0,0E0,0E0],"parents":[2147483647,0,0,1,1,2,2,3,3,4,4,5,5,6,6,7,7,8,8,9,9,10,10,11,11,12,12,13,13,14,14],"right_children":[2,4,6,8,10,12,14,16,18,20,22,24,26,28,30,-1,-1,-1,-1,-1,-1,-1,-1,-1,-1,-1,-1,-1,-1,-1,-1],"split_conditions":[7E0,1.5E2,2.6E1,5.2442593E1,4E0,1.3E1,6.3E1,1.5476923E1,7.8947365E-2,2.9766247E0,2.394E1,6.3076925E0,6.485714E1,6.2E1,3.94E2,-3.9238732E-2,-3.2707125E-2,1.3701417E-2,-2.5788357E-2,-2.168203E-2,2.8881999E-3,-9.157169E-3,4.5770705E-3,1.7517228E-2,-2.1911212E-3,1.137943E-2,3.8541116E-2,6.5180376E-2,-2.8371109E-2,1.049637E-1,5.4129746E-2],"split_indices":[24,25,24,19,24,24,24,16,22,19,28,13,26,24,0,0,0,0,0,0,0,0,0,0,0,0,0,0,0,0,0],"split_type":[0,0,0,0,0,0,0,0,0,0,0,0,0,0,0,0,0,0,0,0,0,0,0,0,0,0,0,0,0,0,0],"sum_hessian":[6.692E3,3.868E3,2.824E3,2.541E3,1.327E3,1.918E3,9.06E2,2.16E3,3.81E2,7.34E2,5.93E2,8.68E2,1.05E3,8.54E2,5.2E1,1.502E3,6.58E2,8E0,3.73E2,6.16E2,1.18E2,3.59E2,2.34E2,6.46E2,2.22E2,1.57E2,8.93E2,8.5E2,4E0,4.7E1,5E0],"tree_param":{"num_deleted":"0","num_feature":"34","num_nodes":"31","size_leaf_vector":"1"}},{"base_weights":[3.3052213E-4,-4.6551672E-1,8.1106E-1,-6.786452E-1,-1.3252781E-1,5.496805E-1,1.2642237E0,-7.27457E-1,-4.8181427E-1,-2.7176067E-1,3.0957965E-2,2.4582088E-1,6.581578E-1,1.1334012E0,1.5861065E0,-3.648412E-2,5.3081036E-2,-2.4726685E-2,1.0880018E-2,-1.64724E-2,2.7788505E-3,-1.0920029E-2,5.54439E-3,1.920292E-2,-1.1295971E-2,1.3060609E-2,3.6128897E-2,5.1553555E-2,6.8134286E-2,7.99066E-2,-3.7309986E-2],"categories":[],"categories_nodes":[],"categories_segments":[],"categories_sizes":[],"default_left":[0,0,0,0,0,0,0,0,0,0,0,0,0,0,0,0,0,0,0,0,0,0,0,0,0,0,0,0,0,0,0],"id":7,"left_children":[1,3,5,7,9,11,13,15,17,19,21,23,25,27,29,-1,-1,-1,-1,-1,-1,-1,-1,-1,-1,-1,-1,-1,-1,-1,-1],"loss_changes":[2.542893E3,3.0337537E2,2.9033118E2,2.4696533E1,3.8021942E1,5.1258698E1,3.60166E1,9.083618E0,4.7424927E0,1.705098E1,1.53513E1,2.6954197E1,2.9192657E1,1.3658081E1,8.400635E0,0E0,0E0,0E0,0E0,0E0,0E0,0E0,0E0,0E0,0E0,0E0,0E0,0E0,0E0,0E0,0E0],"parents":[2147483647,0,0,1,1,2,2,3,3,4,4,5,5,6,6,7,7,8,8,9,9,10,10,11,11,12,12,13,13,14,14],"right_children":[2,4,6,8,10,12,14,16,18,20,22,24,26,28,30,-1,-1,-1,-1,-1,-1,-1,-1,-1,-1,-1,-1,-1,-1,-1,-1],"split_conditions":[9E0,1.6E2,2.6E1,1.3595783E0,5E0,1.2E1,4.4E1,6E0,3.56009E-1,2.9766247E0,1.715E1,6.5E0,6.1395832E1,4E3,3.2547043E8,-3.648412E-2,5.3081036E-2,-2.4726685E-2,1.0880018E-2,-1.64724E-2,2.7788505E-3,-1.0920029E-2,5.54439E-3,1.920292E-2,-1.1295971E-2,1.3060609E-2,3.6128897E-2,5.1553555E-2,6.8134286E-2,7.99066E-2,-3.7309986E-2],"split_indices":[24,25,24,19,24,24,24,24,10,19,28,13,26,25,20,0,0,0,0,0,0,0,0,0,0,0,0,0,0,0,0],"split_type":[0,0,0,0,0,0,0,0,0,0,0,0,0,0,0,0,0,0,0,0,0,0,0,0,0,0,0,0,0,0,0],"sum_hessian":[6.731E3,4.275E3,2.456E3,2.606E3,1.669E3,1.559E3,8.97E2,2.086E3,5.2E2,9.01E2,7.68E2,4.11E2,1.148E3,6.41E2,2.56E2,2.084E3,2E0,5.11E2,9E0,7.66E2,1.35E2,1.86E2,5.82E2,3.18E2,9.3E1,1.61E2,9.87E2,4.47E2,1.94E2,2.55E2,1E0],"tree_param":{"num_deleted":"0","num_feature":"34","num_nodes":"31","size_leaf_vector":"1"}},{"base_weights":[-3.3519093E-3,-4.4089776E-1,6.88146E-1,-6.2953997E-1,-1.17487006E-1,8.823679E-1,3.7920958E-1,-6.7800504E-1,-4.2293188E-1,1.2860526E-1,-2.7041608E-1,6.4680725E-1,1.1740197E0,1.0503966E-1,6.553509E-1,-3.5153534E-2,-2.855358E-2,-1.6469989E-2,-2.924612E-2,-4.3014395E-3,1.875597E-2,-1.8981228E-2,-4.565769E-3,4.774494E-2,2.4687197E-2,7.6614074E-2,5.5595357E-2,1.280455E-2,5.783354E-5,4.025474E-2,1.9790692E-2],"categories":[],"categories_nodes":[],"categories_segments":[],"categories_sizes":[],"default_left":[0,0,0,0,0,0,0,0,0,0,0,0,0,0,0,0,0,0,0,0,0,0,0,0,0,0,0,0,0,0,0],"id":8,"left_children":[1,3,5,7,9,11,13,15,17,19,21,23,25,27,29,-1,-1,-1,-1,-1,-1,-1,-1,-1,-1,-1,-1,-1,-1,-1,-1],"loss_changes":[2.039269E3,2.5177087E2,1.5639111E2,2.5817871E1,5.731473E1,1.0936951E2,7.639792E1,5.2540894E0,7.3526917E0,3.0931908E1,1.8331528E1,4.1451538E1,1.4206787E1,7.97107E0,1.922995E1,0E0,0E0,0E0,0E0,0E0,0E0,0E0,0E0,0E0,0E0,0E0,0E0,0E0,0E0,0E0,0E0],"parents":[2147483647,0,0,1,1,2,2,3,3,4,4,5,5,6,6,7,7,8,8,9,9,10,10,11,11,12,12,13,13,14,14],"right_children":[2,4,6,8,10,12,14,16,18,20,22,24,26,28,30,-1,-1,-1,-1,-1,-1,-1,-1,-1,-1,-1,-1,-1,-1,-1,-1],"split_conditions":[1.173E3,1.6E2,2.0716667E2,1.3595783E0,9.98E1,2.758E3,3.109E3,5.729474E2,1.2906667E2,5.5E2,-4.2743686E-1,7.9166664E1,7.4E1,2.89E2,3.7410345E2,-3.5153534E-2,-2.855358E-2,-1.6469989E-2,-2.924612E-2,-4.3014395E-3,1.875597E-2,-1.8981228E-2,-4.565769E-3,4.774494E-2,2.4687197E-2,7.6614074E-2,5.5595357E-2,1.280455E-2,5.783354E-5,4.025474E-2,1.9790692E-2],"split_indices":[25,25,26,19,26,25,25,16,0,25,19,26,26,26,26,0,0,0,0,0,0,0,0,0,0,0,0,0,0,0,0],"split_type":[0,0,0,0,0,0,0,0,0,0,0,0,0,0,0,0,0,0,0,0,0,0,0,0,0,0,0,0,0,0,0],"sum_hessian":[6.738E3,4.127E3,2.611E3,2.606E3,1.521E3,1.602E3,1.009E3,2.109E3,4.97E2,5.83E2,9.38E2,8.88E2,7.14E2,5.07E2,5.02E2,1.704E3,4.05E2,3.17E2,1.8E2,3.12E2,2.71E2,5.82E2,3.56E2,2.93E2,5.95E2,1.02E2,6.12E2,2.06E2,3.01E2,3.17E2,1.85E2],"tree_param":{"num_deleted":"0","num_feature":"34","num_nodes":"31","size_leaf_vector":"1"}},{"base_weights":[4.6585035E-3,-3.9953318E-1,7.62581E-1,-5.721371E-1,-2.062228E-2,5.0645214E-1,1.1265455E0,-6.197969E-1,-3.7110803E-1,-1.5764594E-1,1.1603195E-1,3.104649E-1,6.560732E-1,9.102488E-1,1.2515457E0,-3.2517713E-2,-2.1455215E-2,-2.2923466E-2,1.1111082E-3,-8.790112E-3,3.0568352E-2,1.2958774E-2,-8.305299E-4,1.1159027E-2,2.9894901E-2,2.5669066E-2,4.0934376E-2,3.1439688E-2,5.2898567E-2,6.0207505E-2,8.5266605E-2],"categories":[],"categories_nodes":[],"categories_segments":[],"categories_sizes":[],"default_left":[0,0,0,0,0,0,0,0,0,0,0,0,0,0,0,0,0,0,0,0,0,0,0,0,0,0,0,0,0,0,0],"id":9,"left_children":[1,3,5,7,9,11,13,15,17,19,21,23,25,27,29,-1,-1,-1,-1,-1,-1,-1,-1,-1,-1,-1,-1,-1,-1,-1,-1],"loss_changes":[2.053129E3,2.8585815E2,2.1672961E2,2.854181E1,2.565263E1,3.996997E1,2.4870361E1,1.38573E1,1.9871323E1,9.65778E0,1.3029333E1,1.479417E1,1.7585815E1,1.4136261E1,1.1001587E1,0E0,0E0,0E0,0E0,0E0,0E0,0E0,0E0,0E0,0E0,0E0,0E0,0E0,0E0,0E0,0E0],"parents":[2147483647,0,0,1,1,2,2,3,3,4,4,5,5,6,6,7,7,8,8,9,9,10,10,11,11,12,12,13,13,14,14],"right_children":[2,4,6,8,10,12,14,16,18,20,22,24,26,28,30,-1,-1,-1,-1,-1,-1,-1,-1,-1,-1,-1,-1,-1,-1,-1,-1],"split_conditions":[1E1,3E0,2.5E1,1.3595783E0,6E0,2.045E3,3.2E1,2.01E2,7.476923E1,5.973929E2,3.431104E1,2.3513513E0,1.7E1,8.55E1,6.3E1,-3.2517713E-2,-2.1455215E-2,-2.2923466E-2,1.1111082E-3,-8.790112E-3,3.0568352E-2,1.2958774E-2,-8.305299E-4,1.1159027E-2,2.9894901E-2,2.5669066E-2,4.0934376E-2,3.1439688E-2,5.2898567E-2,6.0207505E-2,8.5266605E-2],"split_indices":[24,24,24,19,24,25,24,25,26,12,7,1,24,26,24,0,0,0,0,0,0,0,0,0,0,0,0,0,0,0,0],"split_type":[0,0,0,0,0,0,0,0,0,0,0,0,0,0,0,0,0,0,0,0,0,0,0,0,0,0,0,0,0,0,0],"sum_hessian":[6.7E3,4.37E3,2.33E3,3.002E3,1.368E3,1.369E3,9.61E2,2.425E3,5.77E2,6.83E2,6.85E2,5.94E2,7.75E2,3.55E2,6.06E2,2.088E3,3.37E2,4.72E2,1.05E2,6.68E2,1.5E1,3.29E2,3.56E2,4.57E2,1.37E2,4.15E2,3.6E2,1.24E2,2.31E2,5.52E2,5.4E1],"tree_param":{"num_deleted":"0","num_feature":"34","num_nodes":"31","size_leaf_vector":"1"}},{"base_weights":[-2.2840842E-3,-3.8656542E-1,6.414267E-1,-5.6213665E-1,-7.06077E-2,8.8108546E-1,4.160026E-1,-5.851437E-1,-3.3607563E-1,1.7170873E-1,-2.194877E-1,6.245885E-1,1.071348E0,2.0601104E-1,7.166799E-1,-3.0394558E-2,-2.1225756E-2,-1.7506998E-2,4.692995E-2,5.370118E-2,6.058428E-3,-1.3018402E-2,9.6207755E-3,5.254587E-2,2.4424162E-2,6.55625E-2,4.9558323E-2,1.7314782E-2,3.2776736E-3,4.343511E-2,1.7262047E-2],"categories":[],"categories_nodes":[],"categories_segments":[],"categories_sizes":[],"default_left":[0,0,0,0,0,0,0,0,0,0,0,0,0,0,0,0,0,0,0,0,0,0,0,0,0,0,0,0,0,0,0],"id":10,"left_children":[1,3,5,7,9,11,13,15,17,19,21,23,25,27,29,-1,-1,-1,-1,-1,-1,-1,-1,-1,-1,-1,-1,-1,-1,-1,-1],"loss_changes":[1.6477057E3,2.313385E2,1.3415527E2,1.3747131E1,5.382711E1,5.818579E1,8.098683E1,8.628235E0,4.8104973E0,2.577245E1,1.5609108E1,2.9427872E1,1.19921875E1,1.491296E1,2.9514648E1,0E0,0E0,0E0,0E0,0E0,0E0,0E0,0E0,0E0,0E0,0E0,0E0,0E0,0E0,0E0,0E0],"parents":[2147483647,0,0,1,1,2,2,3,3,4,4,5,5,6,6,7,7,8,8,9,9,10,10,11,11,12,12,13,13,14,14],"right_children":[2,4,6,8,10,12,14,16,18,20,22,24,26,28,30,-1,-1,-1,-1,-1,-1,-1,-1,-1,-1,-1,-1,-1,-1,-1,-1],"split_conditions":[1.291E3,2.01E2,1.5585715E2,3.1999592E1,9.98E1,2.319E3,3.519E3,2.2E1,4.210606E1,2.708E1,6.103824E7,5.7444443E1,7.765909E1,2.5011111E2,3.7410345E2,-3.0394558E-2,-2.1225756E-2,-1.7506998E-2,4.692995E-2,5.370118E-2,6.058428E-3,-1.3018402E-2,9.6207755E-3,5.254587E-2,2.4424162E-2,6.55625E-2,4.9558323E-2,1.7314782E-2,3.2776736E-3,4.343511E-2,1.7262047E-2],"split_indices":[25,25,26,20,26,25,25,25,5,26,20,26,26,26,26,0,0,0,0,0,0,0,0,0,0,0,0,0,0,0,0],"split_type":[0,0,0,0,0,0,0,0,0,0,0,0,0,0,0,0,0,0,0,0,0,0,0,0,0,0,0,0,0,0,0],"sum_hessian":[6.659E3,4.17E3,2.489E3,2.68E3,1.49E3,1.205E3,1.284E3,2.431E3,2.49E2,5.67E2,9.23E2,5.15E2,6.9E2,7.57E2,5.27E2,2.127E3,3.04E2,2.47E2,2E0,2.9E1,5.38E2,8.4E2,8.3E1,1.23E2,3.92E2,1.69E2,5.21E2,3.78E2,3.79E2,3.73E2,1.54E2],"tree_param":{"num_deleted":"0","num_feature":"34","num_nodes":"31","size_leaf_vector":"1"}},{"base_weights":[7.0186174E-3,-4.1992542E-1,5.4440415E-1,-5.4340255E-1,-1.3293986E-1,2.6192147E-1,7.294252E-1,-5.775488E-1,-2.9908553E-1,1.1911719E-1,-2.4707305E-1,5.4390216E-1,-6.727872E-2,8.768958E-1,3.9856243E-1,-2.9843254E-2,-2.1787051E-2,-1.6428076E-2,6.952481E-3,3.6446456E-2,2.78299E-3,-1.7239617E-2,-2.8495567E-3,4.2606052E-2,2.252873E-2,-1.3612802E-2,-1.0493958E-4,3.773379E-2,5.4688033E-2,1.3010566E-2,3.210714E-2],"categories":[],"categories_nodes":[],"categories_segments":[],"categories_sizes":[],"default_left":[0,0,0,0,0,0,0,0,0,0,0,0,0,0,0,0,0,0,0,0,0,0,0,0,0,0,0,0,0,0,0],"id":11,"left_children":[1,3,5,7,9,11,13,15,17,19,21,23,25,27,29,-1,-1,-1,-1,-1,-1,-1,-1,-1,-1,-1,-1,-1,-1,-1,-1],"loss_changes":[1.5365156E3,1.3217554E2,1.5477545E2,2.1592834E1,3.2364746E1,1.09109604E2,8.703784E1,6.007263E0,4.204151E0,1.3542103E1,1.435714E1,1.7824509E1,7.2541294E0,3.1988098E1,1.8502502E1,0E0,0E0,0E0,0E0,0E0,0E0,0E0,0E0,0E0,0E0,0E0,0E0,0E0,0E0,0E0,0E0],"parents":[2147483647,0,0,1,1,2,2,3,3,4,4,5,5,6,6,7,7,8,8,9,9,10,10,11,11,12,12,13,13,14,14],"right_children":[2,4,6,8,10,12,14,16,18,20,22,24,26,28,30,-1,-1,-1,-1,-1,-1,-1,-1,-1,-1,-1,-1,-1,-1,-1,-1],"split_conditions":[8.74E2,1.7E2,2.07E3,2.65E6,7.765909E1,1.481875E2,2.4663637E2,5.572986E-1,4.5931904E1,2.708E1,-2.695828E-1,5.6035713E1,1.1E3,3.688E3,4.641E3,-2.9843254E-2,-2.1787051E-2,-1.6428076E-2,6.952481E-3,3.6446456E-2,2.78299E-3,-1.7239617E-2,-2.8495567E-3,4.2606052E-2,2.252873E-2,-1.3612802E-2,-1.0493958E-4,3.773379E-2,5.4688033E-2,1.3010566E-2,3.210714E-2],"split_indices":[25,25,25,19,26,26,26,20,7,26,19,26,25,25,25,0,0,0,0,0,0,0,0,0,0,0,0,0,0,0,0],"split_type":[0,0,0,0,0,0,0,0,0,0,0,0,0,0,0,0,0,0,0,0,0,0,0,0,0,0,0,0,0,0,0],"sum_hessian":[6.695E3,3.731E3,2.964E3,2.608E3,1.123E3,1.174E3,1.79E3,2.287E3,3.21E2,3.5E2,7.73E2,6.32E2,5.42E2,1.237E3,5.53E2,2.01E3,2.77E2,3.01E2,2E1,3.2E1,3.18E2,5.1E2,2.63E2,1.45E2,4.87E2,1.3E2,4.12E2,7.94E2,4.43E2,3.54E2,1.99E2],"tree_param":{"num_deleted":"0","num_feature":"34","num_nodes":"31","size_leaf_vector":"1"}},{"base_weights":[-1.806662E-3,-3.4979105E-1,6.6942614E-1,-4.8836905E-1,-5.3011484E-2,4.4826135E-1,1.0124959E0,-5.3375864E-1,-3.0516726E-1,-1.7900622E-1,7.558632E-2,2.4875629E-1,5.3800815E-1,8.9667875E-1,1.2139313E0,-2.8180987E-2,-1.8170225E-2,-1.8236343E-2,4.0846737E-3,-1.0966997E-2,9.702249E-3,-2.7145199E-3,1.1327003E-2,8.994683E-3,4.9231645E-2,1.9751996E-2,3.4626227E-2,4.1266065E-2,5.32822E-2,6.1172754E-2,-4.6794083E-2],"categories":[],"categories_nodes":[],"categories_segments":[],"categories_sizes":[],"default_left":[0,0,0,0,0,0,0,0,0,0,0,0,0,0,0,0,0,0,0,0,0,0,0,0,0,0,0,0,0,0,0],"id":12,"left_children":[1,3,5,7,9,11,13,15,17,19,21,23,25,27,29,-1,-1,-1,-1,-1,-1,-1,-1,-1,-1,-1,-1,-1,-1,-1,-1],"loss_changes":[1.5687141E3,1.8187933E2,1.7352734E2,2.4908203E1,2.2843058E1,2.486148E1,1.9861511E1,1.2080139E1,1.3877594E1,1.0755699E1,1.3696852E1,2.1866238E1,2.0977875E1,6.0412292E0,7.799164E0,0E0,0E0,0E0,0E0,0E0,0E0,0E0,0E0,0E0,0E0,0E0,0E0,0E0,0E0,0E0,0E0],"parents":[2147483647,0,0,1,1,2,2,3,3,4,4,5,5,6,6,7,7,8,8,9,9,10,10,11,11,12,12,13,13,14,14],"right_children":[2,4,6,8,10,12,14,16,18,20,22,24,26,28,30,-1,-1,-1,-1,-1,-1,-1,-1,-1,-1,-1,-1,-1,-1,-1,-1],"split_conditions":[1E1,3E0,2.6E1,1.3595783E0,6E0,1.621E3,4.1E1,1.5E2,1.772E1,1.0606602E8,2.83E2,3.813889E1,1.7E1,3.93354E3,7.208628E-1,-2.8180987E-2,-1.8170225E-2,-1.8236343E-2,4.0846737E-3,-1.0966997E-2,9.702249E-3,-2.7145199E-3,1.1327003E-2,8.994683E-3,4.9231645E-2,1.9751996E-2,3.4626227E-2,4.1266065E-2,5.32822E-2,6.1172754E-2,-4.6794083E-2],"split_indices":[24,24,24,19,24,25,24,27,28,20,0,5,24,25,10,0,0,0,0,0,0,0,0,0,0,0,0,0,0,0,0],"split_type":[0,0,0,0,0,0,0,0,0,0,0,0,0,0,0,0,0,0,0,0,0,0,0,0,0,0,0,0,0,0,0],"sum_hessian":[6.714E3,4.422E3,2.292E3,3.014E3,1.408E3,1.395E3,8.97E2,2.414E3,6E2,7.11E2,6.97E2,4.34E2,9.61E2,5.73E2,3.24E2,2.052E3,3.62E2,5.2E2,8E1,6.42E2,6.9E1,3.75E2,3.22E2,3.98E2,3.6E1,5.01E2,4.6E2,4.07E2,1.66E2,3.23E2,1E0],"tree_param":{"num_deleted":"0","num_feature":"34","num_nodes":"31","size_leaf_vector":"1"}},{"base_weights":[-2.98598E-4,-3.6911154E-1,5.0800896E-1,-4.9004516E-1,-1.2890498E-1,3.0023712E-1,7.1308756E-1,-5.2532357E-1,-3.4421697E-1,8.263366E-2,-2.600722E-1,6.0353696E-1,8.238282E-2,9.03617E-1,4.6129668E-1,-2.6467279E-2,-6.196074E-3,4.8512802E-3,-1.8362826E-2,3.4241065E-2,1.2300572E-3,2.3331805E-3,-1.5275814E-2,2.2711767E-2,4.1059483E-2,8.779439E-3,-5.8957483E-3,4.1174404E-2,5.5209678E-2,2.082894E-2,5.0923306E-2],"categories":[],"categories_nodes":[],"categories_segments":[],"categories_sizes":[],"default_left":[0,0,0,0,0,0,0,0,0,0,0,0,0,0,0,0,0,0,0,0,0,0,0,0,0,0,0,0,0,0,0],"id":13,"left_children":[1,3,5,7,9,11,13,15,17,19,21,23,25,27,29,-1,-1,-1,-1,-1,-1,-1,-1,-1,-1,-1,-1,-1,-1,-1,-1],"loss_changes":[1.2613009E3,1.131991E2,1.2032837E2,1.3159119E1,3.6286736E1,9.291805E1,6.784955E1,3.302124E0,5.199974E0,1.7491333E1,1.126329E1,1.8734573E1,1.5329241E1,1.2092957E1,1.4898743E1,0E0,0E0,0E0,0E0,0E0,0E0,0E0,0E0,0E0,0E0,0E0,0E0,0E0,0E0,0E0,0E0],"parents":[2147483647,0,0,1,1,2,2,3,3,4,4,5,5,6,6,7,7,8,8,9,9,10,10,11,11,12,12,13,13,14,14],"right_children":[2,4,6,8,10,12,14,16,18,20,22,24,26,28,30,-1,-1,-1,-1,-1,-1,-1,-1,-1,-1,-1,-1,-1,-1,-1,-1],"split_conditions":[1.021E3,1.7E2,2.642E3,1.3595783E0,9.98E1,1.18E2,2.0716667E2,2.1724638E1,8.108108E-2,4.8387095E-2,1.2790698E-1,-1.8034641E-1,2.852857E2,4.332E3,7.35E3,-2.6467279E-2,-6.196074E-3,4.8512802E-3,-1.8362826E-2,3.4241065E-2,1.2300572E-3,2.3331805E-3,-1.5275814E-2,2.2711767E-2,4.1059483E-2,8.779439E-3,-5.8957483E-3,4.1174404E-2,5.5209678E-2,2.082894E-2,5.0923306E-2],"split_indices":[25,25,25,19,26,26,26,13,22,22,22,19,26,25,25,0,0,0,0,0,0,0,0,0,0,0,0,0,0,0,0],"split_type":[0,0,0,0,0,0,0,0,0,0,0,0,0,0,0,0,0,0,0,0,0,0,0,0,0,0,0,0,0,0,0],"sum_hessian":[6.726E3,3.898E3,2.828E3,2.592E3,1.306E3,1.406E3,1.422E3,2.085E3,5.07E2,5E2,8.06E2,5.87E2,8.19E2,8.08E2,6.14E2,2.064E3,2.1E1,2.5E1,4.82E2,4.3E1,4.57E2,1.04E2,7.02E2,3.5E2,2.37E2,5.59E2,2.6E2,5.81E2,2.27E2,5.7E2,4.4E1],"tree_param":{"num_deleted":"0","num_feature":"34","num_nodes":"31","size_leaf_vector":"1"}},{"base_weights":[-7.200932E-4,-3.568088E-1,4.558749E-1,-4.6815032E-1,-1.1774136E-1,2.330918E-1,6.4557457E-1,-4.923904E-1,-3.1417722E-1,-2.0103247E-1,2.9713118E-2,4.16228E-1,4.907807E-2,7.0723635E-1,3.786851E-1,-2.5599359E-2,-1.8632606E-2,-1.7124536E-2,2.4562527E-4,-1.5563639E-2,-1.9271311E-3,-1.8207101E-2,6.209946E-3,1.4598208E-2,3.0365637E-2,3.7230917E-3,-2.348249E-2,3.076134E-2,4.176773E-2,5.3869514E-3,2.9501338E-2],"categories":[],"categories_nodes":[],"categories_segments":[],"categories_sizes":[],"default_left":[0,0,0,0,0,0,0,0,0,0,0,0,0,0,0,0,0,0,0,0,0,0,0,0,0,0,0,0,0,0,0],"id":14,"left_children":[1,3,5,7,9,11,13,15,17,19,21,23,25,27,29,-1,-1,-1,-1,-1,-1,-1,-1,-1,-1,-1,-1,-1,-1,-1,-1],"loss_changes":[1.1016985E3,1.0128012E2,1.2532501E2,9.538208E0,1.4879047E1,4.6046883E1,2.611261E1,5.0699463E0,3.2179794E0,1.385261E1,1.6344833E1,1.608796E1,9.028213E0,1.4822388E1,1.7286877E1,0E0,0E0,0E0,0E0,0E0,0E0,0E0,0E0,0E0,0E0,0E0,0E0,0E0,0E0,0E0,0E0],"parents":[2147483647,0,0,1,1,2,2,3,3,4,4,5,5,6,6,7,7,8,8,9,9,10,10,11,11,12,12,13,13,14,14],"right_children":[2,4,6,8,10,12,14,16,18,20,22,24,26,28,30,-1,-1,-1,-1,-1,-1,-1,-1,-1,-1,-1,-1,-1,-1,-1,-1],"split_conditions":[9.15E2,1.5E2,2.35E3,7.241069E2,-2.4304424E-1,1.979E1,3.479E1,1.544077E2,2.9809874E1,5.28E2,1.3529412E0,1.66E3,4.746E1,3.688E3,4.332E3,-2.5599359E-2,-1.8632606E-2,-1.7124536E-2,2.4562527E-4,-1.5563639E-2,-1.9271311E-3,-1.8207101E-2,6.209946E-3,1.4598208E-2,3.0365637E-2,3.7230917E-3,-2.348249E-2,3.076134E-2,4.176773E-2,5.3869514E-3,2.9501338E-2],"split_indices":[25,25,25,19,19,28,28,2,2,25,1,25,28,25,25,0,0,0,0,0,0,0,0,0,0,0,0,0,0,0,0],"split_type":[0,0,0,0,0,0,0,0,0,0,0,0,0,0,0,0,0,0,0,0,0,0,0,0,0,0,0,0,0,0,0],"sum_hessian":[6.774E3,3.806E3,2.968E3,2.596E3,1.21E3,1.366E3,1.602E3,2.241E3,3.55E2,7.73E2,4.37E2,6.84E2,6.82E2,1.3E3,3.02E2,1.923E3,3.18E2,3.26E2,2.9E1,4.6E2,3.13E2,8.4E1,3.53E2,4.16E2,2.68E2,6.51E2,3.1E1,7.6E2,5.4E2,1.33E2,1.69E2],"tree_param":{"num_deleted":"0","num_feature":"34","num_nodes":"31","size_leaf_vector":"1"}},{"base_weights":[-8.15769E-3,-2.9426733E-1,5.8838135E-1,-4.011231E-1,-1.827731E-3,4.3396768E-1,9.0288854E-1,-4.3446E-1,-1.9803631E-1,-1.7220506E-1,7.9207614E-2,2.4287958E-1,5.0625646E-1,8.6730725E-1,1.4233657E0,-2.3288678E-2,-1.4492914E-2,-1.5394615E-2,2.1973876E-3,-4.280893E-3,-3.2350384E-2,-1.4219088E-3,1.2958871E-2,9.239448E-3,4.775537E-2,1.865518E-2,2.9906785E-2,4.4194482E-2,4.2694528E-3,2.6315792E-2,7.624384E-2],"categories":[],"categories_nodes":[],"categories_segments":[],"categories_sizes":[],"default_left":[0,0,0,0,0,0,0,0,0,0,0,0,0,0,0,0,0,0,0,0,0,0,0,0,0,0,0,0,0,0,0],"id":15,"left_children":[1,3,5,7,9,11,13,15,17,19,21,23,25,27,29,-1,-1,-1,-1,-1,-1,-1,-1,-1,-1,-1,-1,-1,-1,-1,-1],"loss_changes":[1.1399445E3,1.4105658E2,1.04749756E2,2.2296509E1,1.6705803E1,1.9961884E1,1.1951172E1,1.2720032E1,1.2454561E1,1.5978216E1,1.5893225E1,1.6414389E1,1.2671448E1,8.598816E0,3.2041016E0,0E0,0E0,0E0,0E0,0E0,0E0,0E0,0E0,0E0,0E0,0E0,0E0,0E0,0E0,0E0,0E0],"parents":[2147483647,0,0,1,1,2,2,3,3,4,4,5,5,6,6,7,7,8,8,9,9,10,10,11,11,12,12,13,13,14,14],"right_children":[2,4,6,8,10,12,14,16,18,20,22,24,26,28,30,-1,-1,-1,-1,-1,-1,-1,-1,-1,-1,-1,-1,-1,-1,-1,-1],"split_conditions":[1.1E1,4E0,2.9E1,1.3362E0,1.4E0,1.621E3,6.4E1,2.18E2,1.4E1,5.714286E0,-1.1511296E-1,4.1344826E1,1.7E1,6.1E1,-9.9999994E-1,-2.3288678E-2,-1.4492914E-2,-1.5394615E-2,2.1973876E-3,-4.280893E-3,-3.2350384E-2,-1.4219088E-3,1.2958871E-2,9.239448E-3,4.775537E-2,1.865518E-2,2.9906785E-2,4.4194482E-2,4.2694528E-3,2.6315792E-2,7.624384E-2],"split_indices":[24,24,24,20,1,25,24,25,28,13,19,5,24,24,19,0,0,0,0,0,0,0,0,0,0,0,0,0,0,0,0],"split_type":[0,0,0,0,0,0,0,0,0,0,0,0,0,0,0,0,0,0,0,0,0,0,0,0,0,0,0,0,0,0,0],"sum_hessian":[6.677E3,4.513E3,2.164E3,3.305E3,1.208E3,1.453E3,7.11E2,2.838E3,4.67E2,3.89E2,8.19E2,4E2,1.053E3,6.68E2,4.3E1,2.331E3,5.07E2,3.21E2,1.46E2,3.3E2,5.9E1,5.13E2,3.06E2,3.71E2,2.9E1,4.32E2,6.21E2,6.54E2,1.4E1,5E0,3.8E1],"tree_param":{"num_deleted":"0","num_feature":"34","num_nodes":"31","size_leaf_vector":"1"}},{"base_weights":[2.6257182E-3,-2.72967E-1,5.696805E-1,-3.6735475E-1,6.0513474E-2,4.0415764E-1,8.963479E-1,-4.381693E-1,-2.2898746E-1,1.2877443E-1,-6.770004E-2,2.1349178E-1,4.7731525E-1,8.6129797E-1,1.3311167E0,-2.3182191E-2,-1.07209915E-2,-1.4017998E-2,4.4800867E-3,-1.9252291E-2,8.068035E-3,-2.1870269E-2,9.687794E-4,8.291385E-3,4.816249E-2,1.7227273E-2,2.8588692E-2,4.374442E-2,-1.9737456E-2,7.47392E-2,1.1182007E-2],"categories":[],"categories_nodes":[],"categories_segments":[],"categories_sizes":[],"default_left":[0,0,0,0,0,0,0,0,0,0,0,0,0,0,0,0,0,0,0,0,0,0,0,0,0,0,0,0,0,0,0],"id":16,"left_children":[1,3,5,7,9,11,13,15,17,19,21,23,25,27,29,-1,-1,-1,-1,-1,-1,-1,-1,-1,-1,-1,-1,-1,-1,-1,-1],"loss_changes":[1.0454867E3,1.4172934E2,1.1794495E2,3.4282288E1,8.708183E0,2.0179459E1,1.0053894E1,1.312439E1,1.9501522E1,1.0928657E1,1.1147019E1,1.4313564E1,1.2971298E1,1.2004303E1,9.272369E0,0E0,0E0,0E0,0E0,0E0,0E0,0E0,0E0,0E0,0E0,0E0,0E0,0E0,0E0,0E0,0E0],"parents":[2147483647,0,0,1,1,2,2,3,3,4,4,5,5,6,6,7,7,8,8,9,9,10,10,11,11,12,12,13,13,14,14],"right_children":[2,4,6,8,10,12,14,16,18,20,22,24,26,28,30,-1,-1,-1,-1,-1,-1,-1,-1,-1,-1,-1,-1,-1,-1,-1,-1],"split_conditions":[1.1E1,5E0,2.9E1,8E0,5.3076925E0,1.621E3,6.3E1,2.103E7,2.9766247E0,1.35E1,8.6E0,4.5609756E1,1.7E1,6.2E1,4.16E2,-2.3182191E-2,-1.07209915E-2,-1.4017998E-2,4.4800867E-3,-1.9252291E-2,8.068035E-3,-2.1870269E-2,9.687794E-4,8.291385E-3,4.816249E-2,1.7227273E-2,2.8588692E-2,4.374442E-2,-1.9737456E-2,7.47392E-2,1.1182007E-2],"split_indices":[24,24,24,28,13,25,24,19,19,28,5,5,24,24,27,0,0,0,0,0,0,0,0,0,0,0,0,0,0,0,0],"split_type":[0,0,0,0,0,0,0,0,0,0,0,0,0,0,0,0,0,0,0,0,0,0,0,0,0,0,0,0,0,0,0],"sum_hessian":[6.688E3,4.501E3,2.187E3,3.508E3,9.93E2,1.453E3,7.34E2,2.319E3,1.189E3,6.48E2,3.45E2,4.04E2,1.049E3,6.82E2,5.2E1,2.081E3,2.38E2,1.024E3,1.65E2,3.8E1,6.1E2,6.5E1,2.8E2,3.81E2,2.3E1,4.38E2,6.11E2,6.75E2,7E0,4.5E1,7E0],"tree_param":{"num_deleted":"0","num_feature":"34","num_nodes":"31","size_leaf_vector":"1"}},{"base_weights":[4.056589E-3,-2.8643686E-1,5.057623E-1,-3.6800757E-1,-1.9495895E-2,2.553764E-1,6.8402934E-1,-3.9722475E-1,-1.8736567E-1,-1.2651458E-1,6.2040567E-2,3.4511536E-1,8.8971846E-2,5.5921805E-1,8.591277E-1,-2.112598E-2,-1.3642601E-2,-1.4063559E-2,4.6928326E-4,-1.1678917E-2,3.880835E-3,-1.0416412E-2,5.4001785E-3,4.856723E-2,1.645354E-2,-1.0976098E-2,1.0142281E-2,1.2510575E-2,3.065961E-2,4.3401502E-2,-3.332599E-2],"categories":[],"categories_nodes":[],"categories_segments":[],"categories_sizes":[],"default_left":[0,0,0,0,0,0,0,0,0,0,0,0,0,0,0,0,0,0,0,0,0,0,0,0,0,0,0,0,0,0,0],"id":17,"left_children":[1,3,5,7,9,11,13,15,17,19,21,23,25,27,29,-1,-1,-1,-1,-1,-1,-1,-1,-1,-1,-1,-1,-1,-1,-1,-1],"loss_changes":[9.7137103E2,9.190329E1,1.0891455E2,1.698883E1,8.63779E0,1.5171059E1,3.0705566E1,8.636871E0,8.353805E0,9.372095E0,7.006452E0,6.321808E0,1.2620835E1,1.3789703E1,8.618988E0,0E0,0E0,0E0,0E0,0E0,0E0,0E0,0E0,0E0,0E0,0E0,0E0,0E0,0E0,0E0,0E0],"parents":[2147483647,0,0,1,1,2,2,3,3,4,4,5,5,6,6,7,7,8,8,9,9,10,10,11,11,12,12,13,13,14,14],"right_children":[2,4,6,8,10,12,14,16,18,20,22,24,26,28,30,-1,-1,-1,-1,-1,-1,-1,-1,-1,-1,-1,-1,-1,-1,-1,-1],"split_conditions":[9E0,4E0,1.8E1,1.3362E0,6E0,6.3333335E0,3.2E1,1.95E1,1.4E1,-5.703171E-2,7.9685E1,1.025E1,-9.841481E-1,1.4E3,7.9907054E-1,-2.112598E-2,-1.3642601E-2,-1.4063559E-2,4.6928326E-4,-1.1678917E-2,3.880835E-3,-1.0416412E-2,5.4001785E-3,4.856723E-2,1.645354E-2,-1.0976098E-2,1.0142281E-2,1.2510575E-2,3.065961E-2,4.3401502E-2,-3.332599E-2],"split_indices":[24,24,24,20,24,13,24,28,28,20,0,28,19,25,10,0,0,0,0,0,0,0,0,0,0,0,0,0,0,0,0],"split_type":[0,0,0,0,0,0,0,0,0,0,0,0,0,0,0,0,0,0,0,0,0,0,0,0,0,0,0,0,0,0,0],"sum_hessian":[6.663E3,4.22E3,2.443E3,3.232E3,9.88E2,1.017E3,1.426E3,2.781E3,4.51E2,4.27E2,5.61E2,6.6E2,3.57E2,8.35E2,5.91E2,2.309E3,4.72E2,3.05E2,1.46E2,2.8E2,1.47E2,8.1E1,4.8E2,1.5E1,6.45E2,9.6E1,2.61E2,1.25E2,7.1E2,5.88E2,3E0],"tree_param":{"num_deleted":"0","num_feature":"34","num_nodes":"31","size_leaf_vector":"1"}},{"base_weights":[4.1239276E-3,-2.4862148E-1,4.8822343E-1,-3.4978703E-1,-3.0582896E-2,3.0892023E-1,7.480285E-1,-3.9093176E-1,-1.8110047E-1,-9.970176E-2,1.0524549E-1,2.3469003E-1,4.7490084E-1,6.514577E-1,9.140893E-1,-2.0402247E-2,-1.2667214E-2,-1.0245074E-2,2.2460166E-2,-4.1548787E-3,-3.497211E-2,1.07114455E-2,-7.213158E-3,1.3287634E-2,-8.605952E-3,4.5583457E-2,2.1780295E-2,3.3253808E-2,-2.205692E-2,4.6107132E-2,-4.640623E-2],"categories":[],"categories_nodes":[],"categories_segments":[],"categories_sizes":[],"default_left":[0,0,0,0,0,0,0,0,0,0,0,0,0,0,0,0,0,0,0,0,0,0,0,0,0,0,0,0,0,0,0],"id":18,"left_children":[1,3,5,7,9,11,13,15,17,19,21,23,25,27,29,-1,-1,-1,-1,-1,-1,-1,-1,-1,-1,-1,-1,-1,-1,-1,-1],"loss_changes":[8.2613275E2,9.783853E1,1.07657166E2,2.0959137E1,1.3219838E1,1.6792648E1,1.4559143E1,5.629944E0,9.033157E0,9.232884E0,1.2947251E1,1.20504875E1,6.862732E0,9.235901E0,5.9742737E0,0E0,0E0,0E0,0E0,0E0,0E0,0E0,0E0,0E0,0E0,0E0,0E0,0E0,0E0,0E0,0E0],"parents":[2147483647,0,0,1,1,2,2,3,3,4,4,5,5,6,6,7,7,8,8,9,9,10,10,11,11,12,12,13,13,14,14],"right_children":[2,4,6,8,10,12,14,16,18,20,22,24,26,28,30,-1,-1,-1,-1,-1,-1,-1,-1,-1,-1,-1,-1,-1,-1,-1,-1],"split_conditions":[1E1,3E0,2.5E1,1.3595783E0,-1.7486864E-1,8.2537E2,4E1,2E0,1E0,3.515E1,2.352941E-1,1E0,2.2962866E2,9.7018915E-1,5.3568896E8,-2.0402247E-2,-1.2667214E-2,-1.0245074E-2,2.2460166E-2,-4.1548787E-3,-3.497211E-2,1.07114455E-2,-7.213158E-3,1.3287634E-2,-8.605952E-3,4.5583457E-2,2.1780295E-2,3.3253808E-2,-2.205692E-2,4.6107132E-2,-4.640623E-2],"split_indices":[24,24,24,19,19,6,24,24,31,5,22,32,2,17,20,0,0,0,0,0,0,0,0,0,0,0,0,0,0,0,0],"split_type":[0,0,0,0,0,0,0,0,0,0,0,0,0,0,0,0,0,0,0,0,0,0,0,0,0,0,0,0,0,0,0],"sum_hessian":[6.75E3,4.435E3,2.315E3,3.029E3,1.406E3,1.371E3,9.44E2,2.434E3,5.95E2,9.32E2,4.74E2,9.49E2,4.22E2,6E2,3.44E2,2.163E3,2.71E2,5.74E2,2.1E1,9.08E2,2.4E1,3.3E2,1.44E2,8.82E2,6.7E1,3.3E1,3.89E2,5.93E2,7E0,3.43E2,1E0],"tree_param":{"num_deleted":"0","num_feature":"34","num_nodes":"31","size_leaf_vector":"1"}},{"base_weights":[-5.812546E-3,-2.9036373E-1,3.8825384E-1,-3.613936E-1,-1.2838158E-1,2.4256885E-1,6.7734605E-1,-3.8584432E-1,-1.4733714E-1,-1.5662286E-1,1.5734243E-1,1.1161367E-1,3.312256E-1,6.042506E-1,1.0316677E0,-2.0297188E-2,-1.4873907E-2,1.901754E-2,-8.838066E-3,7.4256337E-3,-9.144588E-3,-1.1543384E-2,1.2189201E-2,-1.9456284E-3,9.077255E-3,6.5062228E-3,2.0188408E-2,3.0653024E-2,-4.4194948E-2,5.24826E-2,-4.5246076E-2],"categories":[],"categories_nodes":[],"categories_segments":[],"categories_sizes":[],"default_left":[0,0,0,0,0,0,0,0,0,0,0,0,0,0,0,0,0,0,0,0,0,0,0,0,0,0,0,0,0,0,0],"id":19,"left_children":[1,3,5,7,9,11,13,15,17,19,21,23,25,27,29,-1,-1,-1,-1,-1,-1,-1,-1,-1,-1,-1,-1,-1,-1,-1,-1],"loss_changes":[7.490428E2,4.458374E1,1.1780371E2,1.4053558E1,9.578587E0,2.1604172E1,2.3670166E1,4.175659E0,4.383676E0,8.6679535E0,3.6469338E0,7.9440565E0,1.6155167E1,1.0768066E1,6.4875183E0,0E0,0E0,0E0,0E0,0E0,0E0,0E0,0E0,0E0,0E0,0E0,0E0,0E0,0E0,0E0,0E0],"parents":[2147483647,0,0,1,1,2,2,3,3,4,4,5,5,6,6,7,7,8,8,9,9,10,10,11,11,12,12,13,13,14,14],"right_children":[2,4,6,8,10,12,14,16,18,20,22,24,26,28,30,-1,-1,-1,-1,-1,-1,-1,-1,-1,-1,-1,-1,-1,-1,-1,-1],"split_conditions":[7E0,2E0,2.5E1,2.103E7,6.103824E7,1.2E1,4.9E1,5.5969E2,1.4285713E-1,3.995E1,1.3529412E0,1.4E0,1.1428571E2,6E0,5.3568896E8,-2.0297188E-2,-1.4873907E-2,1.901754E-2,-8.838066E-3,7.4256337E-3,-9.144588E-3,-1.1543384E-2,1.2189201E-2,-1.9456284E-3,9.077255E-3,6.5062228E-3,2.0188408E-2,3.0653024E-2,-4.4194948E-2,5.24826E-2,-4.5246076E-2],"split_indices":[24,24,24,19,20,24,24,16,22,0,1,1,0,1,20,0,0,0,0,0,0,0,0,0,0,0,0,0,0,0,0],"split_type":[0,0,0,0,0,0,0,0,0,0,0,0,0,0,0,0,0,0,0,0,0,0,0,0,0,0,0,0,0,0,0],"sum_hessian":[6.678E3,3.878E3,2.8E3,2.695E3,1.183E3,1.863E3,9.37E2,2.418E3,2.77E2,1.077E3,1.06E2,7.53E2,1.11E3,7.79E2,1.58E2,1.967E3,4.51E2,1.4E1,2.63E2,8.5E1,9.92E2,1.9E1,8.7E1,2.39E2,5.14E2,2.95E2,8.15E2,7.75E2,4E0,1.57E2,1E0],"tree_param":{"num_deleted":"0","num_feature":"34","num_nodes":"31","size_leaf_vector":"1"}},{"base_weights":[4.95955E-3,-2.6358894E-1,3.4978914E-1,-3.4776804E-1,-8.3205916E-2,4.9592212E-1,1.9436026E-1,-3.6633703E-1,-1.8664697E-1,-2.5519997E-1,5.6142802E-3,2.5742534E-1,5.992829E-1,1.1269875E-2,3.7210226E-1,-1.9160582E-2,-1.2782563E-2,-2.909518E-3,-1.671586E-2,-1.8888624E-2,-3.8923863E-3,3.1936344E-2,-1.0525238E-3,5.7600806E-3,2.4444928E-2,4.0073488E-2,2.5915531E-2,-1.1668532E-2,2.7622555E-3,2.2916669E-2,8.283268E-3],"categories":[],"categories_nodes":[],"categories_segments":[],"categories_sizes":[],"default_left":[0,0,0,0,0,0,0,0,0,0,0,0,0,0,0,0,0,0,0,0,0,0,0,0,0,0,0,0,0,0,0],"id":20,"left_children":[1,3,5,7,9,11,13,15,17,19,21,23,25,27,29,-1,-1,-1,-1,-1,-1,-1,-1,-1,-1,-1,-1,-1,-1,-1,-1],"loss_changes":[6.195167E2,5.7079895E1,6.643082E1,7.602783E0,1.8302734E1,3.7044403E1,4.62392E1,4.1941833E0,5.045327E0,8.839905E0,1.3366943E1,1.5021484E1,1.6807495E1,7.5543375E0,1.2758797E1,0E0,0E0,0E0,0E0,0E0,0E0,0E0,0E0,0E0,0E0,0E0,0E0,0E0,0E0,0E0,0E0],"parents":[2147483647,0,0,1,1,2,2,3,3,4,4,5,5,6,6,7,7,8,8,9,9,10,10,11,11,12,12,13,13,14,14],"right_children":[2,4,6,8,10,12,14,16,18,20,22,24,26,28,30,-1,-1,-1,-1,-1,-1,-1,-1,-1,-1,-1,-1,-1,-1,-1,-1],"split_conditions":[9.31E2,1.5E2,1.64375E2,2.103E7,1.3846154E0,1.695E3,2.758E3,1.544077E2,1.4883721E0,5.28E2,2.8882353E1,-2.2839725E-1,7.9166664E1,1.1E3,3.7410345E2,-1.9160582E-2,-1.2782563E-2,-2.909518E-3,-1.671586E-2,-1.8888624E-2,-3.8923863E-3,3.1936344E-2,-1.0525238E-3,5.7600806E-3,2.4444928E-2,4.0073488E-2,2.5915531E-2,-1.1668532E-2,2.7622555E-3,2.2916669E-2,8.283268E-3],"split_indices":[25,25,26,19,1,25,25,2,1,25,26,19,26,25,26,0,0,0,0,0,0,0,0,0,0,0,0,0,0,0,0],"split_type":[0,0,0,0,0,0,0,0,0,0,0,0,0,0,0,0,0,0,0,0,0,0,0,0,0,0,0,0,0,0,0],"sum_hessian":[6.688E3,3.76E3,2.928E3,2.563E3,1.197E3,1.508E3,1.42E3,2.297E3,2.66E2,4.07E2,7.9E2,4.57E2,1.051E3,7E2,7.2E2,1.991E3,3.06E2,1.43E2,1.23E2,2.4E2,1.67E2,3.1E1,7.59E2,2.84E2,1.73E2,2.98E2,7.53E2,1.06E2,5.94E2,5.07E2,2.13E2],"tree_param":{"num_deleted":"0","num_feature":"34","num_nodes":"31","size_leaf_vector":"1"}},{"base_weights":[-8.603291E-4,-2.7169657E-1,3.422175E-1,-3.1688407E-1,-1.531442E-1,2.0499067E-1,6.3844365E-1,-3.4044984E-1,-1.6442022E-1,-1.9352132E-1,2.1055783E-1,1.0568743E-1,3.109888E-1,4.985546E-1,7.725832E-1,-1.8005965E-2,-1.066465E-2,2.8279355E-2,-9.118161E-3,5.0224396E-3,-1.1022857E-2,-3.9205453E-3,2.6825536E-2,-1.8713981E-3,9.8450435E-3,5.0064456E-3,1.7498618E-2,2.5798569E-2,-3.5237905E-2,3.920702E-2,-3.9360043E-2],"categories":[],"categories_nodes":[],"categories_segments":[],"categories_sizes":[],"default_left":[0,0,0,0,0,0,0,0,0,0,0,0,0,0,0,0,0,0,0,0,0,0,0,0,0,0,0,0,0,0,0],"id":21,"left_children":[1,3,5,7,9,11,13,15,17,19,21,23,25,27,29,-1,-1,-1,-1,-1,-1,-1,-1,-1,-1,-1,-1,-1,-1,-1,-1],"loss_changes":[6.230146E2,2.0024475E1,1.20112335E2,9.688049E0,1.5254662E1,2.1261147E1,1.7178558E1,5.795807E0,4.884099E0,7.4099426E0,9.837849E0,1.3661905E1,8.004196E0,1.00252E1,9.197968E0,0E0,0E0,0E0,0E0,0E0,0E0,0E0,0E0,0E0,0E0,0E0,0E0,0E0,0E0,0E0,0E0],"parents":[2147483647,0,0,1,1,2,2,3,3,4,4,5,5,6,6,7,7,8,8,9,9,10,10,11,11,12,12,13,13,14,14],"right_children":[2,4,6,8,10,12,14,16,18,20,22,24,26,28,30,-1,-1,-1,-1,-1,-1,-1,-1,-1,-1,-1,-1,-1,-1,-1,-1],"split_conditions":[6E0,2.18E2,2.5E1,7.241069E2,2.3499994E1,2.07E3,3.5E1,1.544077E2,7.8947365E-2,6.25E1,1.11111104E-1,1.625E0,9E0,9.7018915E-1,6E0,-1.8005965E-2,-1.066465E-2,2.8279355E-2,-9.118161E-3,5.0224396E-3,-1.1022857E-2,-3.9205453E-3,2.6825536E-2,-1.8713981E-3,9.8450435E-3,5.0064456E-3,1.7498618E-2,2.5798569E-2,-3.5237905E-2,3.920702E-2,-3.9360043E-2],"split_indices":[24,25,24,19,19,25,24,2,22,0,21,1,24,17,1,0,0,0,0,0,0,0,0,0,0,0,0,0,0,0,0],"split_type":[0,0,0,0,0,0,0,0,0,0,0,0,0,0,0,0,0,0,0,0,0,0,0,0,0,0,0,0,0,0,0],"sum_hessian":[6.703E3,3.746E3,2.957E3,2.711E3,1.035E3,2.022E3,9.35E2,2.347E3,3.64E2,9.32E2,1.03E2,1.045E3,9.77E2,4.6E2,4.75E2,2.031E3,3.16E2,8E0,3.56E2,7.8E1,8.54E2,5.5E1,4.8E1,4.07E2,6.38E2,1.53E2,8.24E2,4.54E2,6E0,4.72E2,3E0],"tree_param":{"num_deleted":"0","num_feature":"34","num_nodes":"31","size_leaf_vector":"1"}},{"base_weights":[7.3324093E-3,-2.0576055E-1,4.4899482E-1,-2.795659E-1,3.547105E-2,3.5563233E-1,6.917978E-1,-3.1893405E-1,-1.6378845E-1,1.1496573E-1,-1.2205073E-1,-1.8055995E-1,3.73718E-1,7.0030797E-1,-7.5768083E-1,-1.712511E-2,-7.7068396E-3,-9.883671E-3,2.4918125E-3,-1.8218432E-2,7.2601507E-3,-7.336264E-3,4.832741E-2,-3.128464E-2,5.8600516E-3,1.3510607E-2,2.2538489E-2,3.564154E-2,-5.4911277E-3,2.739278E-2,-6.877391E-2],"categories":[],"categories_nodes":[],"categories_segments":[],"categories_sizes":[],"default_left":[0,0,0,0,0,0,0,0,0,0,0,0,0,0,0,0,0,0,0,0,0,0,0,0,0,0,0,0,0,0,0],"id":22,"left_children":[1,3,5,7,9,11,13,15,17,19,21,23,25,27,29,-1,-1,-1,-1,-1,-1,-1,-1,-1,-1,-1,-1,-1,-1,-1,-1],"loss_changes":[6.2896985E2,8.027118E1,4.905835E1,1.5681793E1,1.3249939E1,1.5321472E1,7.9688416E0,9.948364E0,6.3654003E0,1.0242023E1,9.677358E0,6.965578E0,1.2016602E1,6.165344E0,3.9797916E0,0E0,0E0,0E0,0E0,0E0,0E0,0E0,0E0,0E0,0E0,0E0,0E0,0E0,0E0,0E0,0E0],"parents":[2147483647,0,0,1,1,2,2,3,3,4,4,5,5,6,6,7,7,8,8,9,9,10,10,11,11,12,12,13,13,14,14],"right_children":[2,4,6,8,10,12,14,16,18,20,22,24,26,28,30,-1,-1,-1,-1,-1,-1,-1,-1,-1,-1,-1,-1,-1,-1,-1,-1],"split_conditions":[1.1E1,5E0,3.2E1,1.7E1,5.3076925E0,2.568E1,6E0,2.65E6,2.9766247E0,1.35E1,8.2E7,1.675E1,1.7E1,9.614031E-1,4.5609756E1,-1.712511E-2,-7.7068396E-3,-9.883671E-3,2.4918125E-3,-1.8218432E-2,7.2601507E-3,-7.336264E-3,4.832741E-2,-3.128464E-2,5.8600516E-3,1.3510607E-2,2.2538489E-2,3.564154E-2,-5.4911277E-3,2.739278E-2,-6.877391E-2],"split_indices":[24,24,24,28,13,0,1,19,19,28,19,28,24,17,5,0,0,0,0,0,0,0,0,0,0,0,0,0,0,0,0],"split_type":[0,0,0,0,0,0,0,0,0,0,0,0,0,0,0,0,0,0,0,0,0,0,0,0,0,0,0,0,0,0,0],"sum_hessian":[6.681E3,4.507E3,2.174E3,3.451E3,1.056E3,1.572E3,6.02E2,2.574E3,8.77E2,7.02E2,3.54E2,5.1E1,1.521E3,5.99E2,3E0,2.251E3,3.23E2,7.57E2,1.2E2,4.1E1,6.61E2,3.47E2,7E0,2E1,3.1E1,6.51E2,8.7E2,5.9E2,9E0,1E0,2E0],"tree_param":{"num_deleted":"0","num_feature":"34","num_nodes":"31","size_leaf_vector":"1"}},{"base_weights":[1.0092145E-2,-1.898899E-1,4.279741E-1,-2.8612682E-1,5.902978E-3,3.0186284E-1,6.0865957E-1,-3.0595073E-1,-1.4697573E-1,-1.4371188E-1,4.540237E-2,3.2077777E-1,-5.9545793E-2,5.8380467E-1,1.0185235E0,-1.6083576E-2,-9.609634E-3,-9.426218E-3,1.4313786E-2,-9.105786E-3,4.205807E-2,1.2413481E-3,1.4714775E-2,2.059562E-2,1.1595382E-2,-2.0428343E-2,1.4563984E-2,2.9360408E-2,-5.7559576E-2,-3.7075534E-2,5.536532E-2],"categories":[],"categories_nodes":[],"categories_segments":[],"categories_sizes":[],"default_left":[0,0,0,0,0,0,0,0,0,0,0,0,0,0,0,0,0,0,0,0,0,0,0,0,0,0,0,0,0,0,0],"id":23,"left_children":[1,3,5,7,9,11,13,15,17,19,21,23,25,27,29,-1,-1,-1,-1,-1,-1,-1,-1,-1,-1,-1,-1,-1,-1,-1,-1],"loss_changes":[5.6467267E2,8.611192E1,4.965027E1,8.407166E0,8.912437E0,8.83757E0,8.553467E0,4.732773E0,6.966358E0,1.2067408E1,6.1021395E0,9.8340225E0,8.077963E0,5.6894226E0,8.634129E0,0E0,0E0,0E0,0E0,0E0,0E0,0E0,0E0,0E0,0E0,0E0,0E0,0E0,0E0,0E0,0E0],"parents":[2147483647,0,0,1,1,2,2,3,3,4,4,5,5,6,6,7,7,8,8,9,9,10,10,11,11,12,12,13,13,14,14],"right_children":[2,4,6,8,10,12,14,16,18,20,22,24,26,28,30,-1,-1,-1,-1,-1,-1,-1,-1,-1,-1,-1,-1,-1,-1,-1,-1],"split_conditions":[1.1E1,3E0,2.6E1,1.8841205E0,1.7E1,5.999999E-1,6.4E1,1.97E2,3.4733334E2,9.999999E-1,3.657863E7,6.3333335E0,2.76E2,4.9134154E8,2.5862068E-2,-1.6083576E-2,-9.609634E-3,-9.426218E-3,1.4313786E-2,-9.105786E-3,4.205807E-2,1.2413481E-3,1.4714775E-2,2.059562E-2,1.1595382E-2,-2.0428343E-2,1.4563984E-2,2.9360408E-2,-5.7559576E-2,-3.7075534E-2,5.536532E-2],"split_indices":[24,24,24,20,28,22,24,27,26,21,20,13,27,18,21,0,0,0,0,0,0,0,0,0,0,0,0,0,0,0,0],"split_type":[0,0,0,0,0,0,0,0,0,0,0,0,0,0,0,0,0,0,0,0,0,0,0,0,0,0,0,0,0,0,0],"sum_hessian":[6.755E3,4.569E3,2.186E3,3.063E3,1.506E3,1.289E3,8.97E2,2.68E3,3.83E2,3.14E2,1.192E3,1.225E3,6.4E1,8.48E2,4.9E1,2.353E3,3.27E2,3.5E2,3.3E1,3.03E2,1.1E1,1.102E3,9E1,6.03E2,6.22E2,3.2E1,3.2E1,8.47E2,1E0,2E0,4.7E1],"tree_param":{"num_deleted":"0","num_feature":"34","num_nodes":"31","size_leaf_vector":"1"}},{"base_weights":[1.9270762E-4,-1.860188E-1,3.8264436E-1,-2.599115E-1,5.249551E-3,2.718498E-1,5.955868E-1,-2.9748043E-1,-1.7080037E-1,-1.4005112E-2,3.4156266E-1,1.8765146E-1,3.9017326E-1,5.670136E-1,9.676728E-1,-1.5592694E-2,-8.751364E-3,-1.0027957E-2,5.5192295E-3,-3.802358E-3,4.83722E-3,6.371893E-3,4.8822034E-2,-9.136539E-3,1.1411737E-2,1.2596227E-2,2.36041E-2,2.9011935E-2,-8.723979E-3,5.625651E-2,-1.949197E-3],"categories":[],"categories_nodes":[],"categories_segments":[],"categories_sizes":[],"default_left":[0,0,0,0,0,0,0,0,0,0,0,0,0,0,0,0,0,0,0,0,0,0,0,0,0,0,0,0,0,0,0],"id":24,"left_children":[1,3,5,7,9,11,13,15,17,19,21,23,25,27,29,-1,-1,-1,-1,-1,-1,-1,-1,-1,-1,-1,-1,-1,-1,-1,-1],"loss_changes":[4.765122E2,6.360138E1,5.153006E1,1.0816177E1,8.131657E0,1.4302872E1,7.414459E0,3.9618988E0,8.096985E0,8.170256E0,9.119698E0,1.27431755E1,6.664009E0,6.9460297E0,8.286144E0,0E0,0E0,0E0,0E0,0E0,0E0,0E0,0E0,0E0,0E0,0E0,0E0,0E0,0E0,0E0,0E0],"parents":[2147483647,0,0,1,1,2,2,3,3,4,4,5,5,6,6,7,7,8,8,9,9,10,10,11,11,12,12,13,13,14,14],"right_children":[2,4,6,8,10,12,14,16,18,20,22,24,26,28,30,-1,-1,-1,-1,-1,-1,-1,-1,-1,-1,-1,-1,-1,-1,-1,-1],"split_conditions":[1.1E1,4E0,2.9E1,1E0,6.103824E7,2.758E3,6.4E1,3.6336753E0,3.657863E7,2.4E1,1.2511369E2,4.4244E1,1.7E1,6.2E1,4.16E2,-1.5592694E-2,-8.751364E-3,-1.0027957E-2,5.5192295E-3,-3.802358E-3,4.83722E-3,6.371893E-3,4.8822034E-2,-9.136539E-3,1.1411737E-2,1.2596227E-2,2.36041E-2,2.9011935E-2,-8.723979E-3,5.625651E-2,-1.949197E-3],"split_indices":[24,24,24,24,20,25,24,20,20,29,3,0,24,24,27,0,0,0,0,0,0,0,0,0,0,0,0,0,0,0,0],"split_type":[0,0,0,0,0,0,0,0,0,0,0,0,0,0,0,0,0,0,0,0,0,0,0,0,0,0,0,0,0,0,0],"sum_hessian":[6.689E3,4.499E3,2.19E3,3.245E3,1.254E3,1.442E3,7.48E2,2.281E3,9.64E2,1.187E3,6.7E1,8.44E2,5.98E2,6.97E2,5.1E1,2.04E3,2.41E2,8.72E2,9.2E1,7.61E2,4.26E2,5.1E1,1.6E1,8.3E1,7.61E2,2.24E2,3.74E2,6.85E2,1.2E1,4.4E1,7E0],"tree_param":{"num_deleted":"0","num_feature":"34","num_nodes":"31","size_leaf_vector":"1"}},{"base_weights":[3.4066269E-3,-1.6267379E-1,3.8494104E-1,-2.3381458E-1,4.58636E-2,2.8105524E-1,5.714631E-1,-2.6941988E-1,-1.1919104E-1,1.09496474E-1,-1.1288656E-1,1.0986381E-1,3.4053293E-1,5.0945055E-1,6.9138396E-1,-1.4400936E-2,-5.4544783E-3,-9.810727E-3,1.2954657E-3,1.2005154E-2,2.4961182E-3,-1.0171678E-2,1.8082831E-2,6.6337414E-2,4.197687E-3,1.8466337E-2,-1.705797E-4,2.757958E-2,1.0720157E-2,3.5154995E-2,-5.418236E-2],"categories":[],"categories_nodes":[],"categories_segments":[],"categories_sizes":[],"default_left":[0,0,0,0,0,0,0,0,0,0,0,0,0,0,0,0,0,0,0,0,0,0,0,0,0,0,0,0,0,0,0],"id":25,"left_children":[1,3,5,7,9,11,13,15,17,19,21,23,25,27,29,-1,-1,-1,-1,-1,-1,-1,-1,-1,-1,-1,-1,-1,-1,-1,-1],"loss_changes":[4.2518103E2,6.936676E1,3.9271576E1,1.4194962E1,1.2033419E1,1.3290924E1,5.054184E0,7.8975983E0,9.258926E0,6.6016703E0,1.4725817E1,1.0577139E1,9.617531E0,5.887169E0,5.856949E0,0E0,0E0,0E0,0E0,0E0,0E0,0E0,0E0,0E0,0E0,0E0,0E0,0E0,0E0,0E0,0E0],"parents":[2147483647,0,0,1,1,2,2,3,3,4,4,5,5,6,6,7,7,8,8,9,9,10,10,11,11,12,12,13,13,14,14],"right_children":[2,4,6,8,10,12,14,16,18,20,22,24,26,28,30,-1,-1,-1,-1,-1,-1,-1,-1,-1,-1,-1,-1,-1,-1,-1,-1],"split_conditions":[1.2E1,5E0,2.9E1,2.01E2,5.6666665E0,1.125E2,2.1684067E3,2.103E7,-2.695828E-1,1.5789473E-1,2.98E2,3.75E2,1.1E1,1.19375E1,7.9907054E-1,-1.4400936E-2,-5.4544783E-3,-9.810727E-3,1.2954657E-3,1.2005154E-2,2.4961182E-3,-1.0171678E-2,1.8082831E-2,6.6337414E-2,4.197687E-3,1.8466337E-2,-1.705797E-4,2.757958E-2,1.0720157E-2,3.5154995E-2,-5.418236E-2],"split_indices":[24,24,24,25,13,0,16,19,19,22,26,25,13,13,10,0,0,0,0,0,0,0,0,0,0,0,0,0,0,0,0],"split_type":[0,0,0,0,0,0,0,0,0,0,0,0,0,0,0,0,0,0,0,0,0,0,0,0,0,0,0,0,0,0,0],"sum_hessian":[6.708E3,4.674E3,2.034E3,3.485E3,1.189E3,1.308E3,7.26E2,2.658E3,8.27E2,8.49E2,3.4E2,3.38E2,9.7E2,4.82E2,2.44E2,2.381E3,2.77E2,5.4E2,2.87E2,2.65E2,5.84E2,2.86E2,5.4E1,6E0,3.32E2,8.95E2,7.5E1,4.21E2,6.1E1,2.43E2,1E0],"tree_param":{"num_deleted":"0","num_feature":"34","num_nodes":"31","size_leaf_vector":"1"}},{"base_weights":[-3.5142493E-3,-1.7459343E-1,2.846097E-1,-2.5123712E-1,-5.950136E-2,4.5612392E-1,2.0676425E-1,-3.038645E-1,-2.0678872E-1,-1.321906E-1,6.857692E-2,8.883269E-1,4.3276083E-1,8.528643E-2,3.360146E-1,-1.5658278E-2,-7.879016E-3,-9.254264E-3,-1.716658E-2,5.7580996E-2,-6.9636307E-3,1.1320676E-2,-2.7473613E-3,4.846967E-2,-5.480495E-2,1.7549407E-2,2.9408185E-2,5.6331228E-3,-1.6980363E-2,1.9488672E-2,7.146898E-3],"categories":[],"categories_nodes":[],"categories_segments":[],"categories_sizes":[],"default_left":[0,0,0,0,0,0,0,0,0,0,0,0,0,0,0,0,0,0,0,0,0,0,0,0,0,0,0,0,0,0,0],"id":26,"left_children":[1,3,5,7,9,11,13,15,17,19,21,23,25,27,29,-1,-1,-1,-1,-1,-1,-1,-1,-1,-1,-1,-1,-1,-1,-1,-1],"loss_changes":[3.3050333E2,3.7095352E1,3.325798E1,5.8436584E0,1.5677649E1,7.481598E0,2.6977158E1,1.5207672E0,4.0023117E0,9.925159E0,1.1905384E1,7.3364944E0,9.209991E0,1.0367383E1,8.590469E0,0E0,0E0,0E0,0E0,0E0,0E0,0E0,0E0,0E0,0E0,0E0,0E0,0E0,0E0,0E0,0E0],"parents":[2147483647,0,0,1,1,2,2,3,3,4,4,5,5,6,6,7,7,8,8,9,9,10,10,11,11,12,12,13,13,14,14],"right_children":[2,4,6,8,10,12,14,16,18,20,22,24,26,28,30,-1,-1,-1,-1,-1,-1,-1,-1,-1,-1,-1,-1,-1,-1,-1,-1],"split_conditions":[1.291E3,1.2269E2,1.1125E2,-9.841481E-1,-2.7728668E-1,3.7772728E1,3.03E3,1.4814815E-1,9.914109E-1,2.0181818E1,1.04875E2,6.878275E-1,3.03E3,1.0481482E1,3.7410345E2,-1.5658278E-2,-7.879016E-3,-9.254264E-3,-1.716658E-2,5.7580996E-2,-6.9636307E-3,1.1320676E-2,-2.7473613E-3,4.846967E-2,-5.480495E-2,1.7549407E-2,2.9408185E-2,5.6331228E-3,-1.6980363E-2,1.9488672E-2,7.146898E-3],"split_indices":[25,25,26,19,19,26,25,23,17,26,26,10,25,13,26,0,0,0,0,0,0,0,0,0,0,0,0,0,0,0,0],"split_type":[0,0,0,0,0,0,0,0,0,0,0,0,0,0,0,0,0,0,0,0,0,0,0,0,0,0,0,0,0,0,0],"sum_hessian":[6.703E3,4.206E3,2.497E3,2.524E3,1.682E3,7.78E2,1.719E3,1.153E3,1.371E3,1.073E3,6.09E2,3.8E1,7.4E2,8.87E2,8.32E2,1.083E3,7E1,1.185E3,1.86E2,5E0,1.068E3,2.67E2,3.42E2,3.7E1,1E0,4.87E2,2.53E2,8.34E2,5.3E1,6.5E2,1.82E2],"tree_param":{"num_deleted":"0","num_feature":"34","num_nodes":"31","size_leaf_vector":"1"}},{"base_weights":[-1.8147909E-3,-2.0435555E-1,2.536396E-1,-2.4904372E-1,-8.6944446E-2,1.2567174E-1,4.320611E-1,-2.692063E-1,-1.6617326E-1,-1.2460017E-1,1.5144761E-1,4.715029E-2,2.158074E-1,3.4747282E-1,5.5666417E-1,-1.0887594E-2,-1.4436412E-2,1.2224546E-2,-9.2475945E-3,-6.522653E-3,3.8607437E-2,-6.363388E-3,1.536681E-2,6.2356717E-3,-1.6490519E-2,9.432197E-3,2.7401388E-2,1.9382384E-2,3.1703566E-3,2.8426472E-2,-1.2576531E-2],"categories":[],"categories_nodes":[],"categories_segments":[],"categories_sizes":[],"default_left":[0,0,0,0,0,0,0,0,0,0,0,0,0,0,0,0,0,0,0,0,0,0,0,0,0,0,0,0,0,0,0],"id":27,"left_children":[1,3,5,7,9,11,13,15,17,19,21,23,25,27,29,-1,-1,-1,-1,-1,-1,-1,-1,-1,-1,-1,-1,-1,-1,-1,-1],"loss_changes":[3.5110724E2,1.9837814E1,6.846518E1,4.5351562E0,9.399653E0,1.2368513E1,1.3013138E1,2.1500244E0,4.201828E0,4.84019E0,6.252256E0,2.7408134E1,7.242363E0,8.5232315E0,4.985672E0,0E0,0E0,0E0,0E0,0E0,0E0,0E0,0E0,0E0,0E0,0E0,0E0,0E0,0E0,0E0,0E0],"parents":[2147483647,0,0,1,1,2,2,3,3,4,4,5,5,6,6,7,7,8,8,9,9,10,10,11,11,12,12,13,13,14,14],"right_children":[2,4,6,8,10,12,14,16,18,20,22,24,26,28,30,-1,-1,-1,-1,-1,-1,-1,-1,-1,-1,-1,-1,-1,-1,-1,-1],"split_conditions":[6E0,1.715E1,2E1,1.3595783E0,2.626227E0,-3.7858805E-1,3.5E1,1.6666666E-1,8.108108E-2,9.9628687E2,2.5862068E-2,7.3076925E0,4.02E1,1.140625E1,3.0710227E8,-1.0887594E-2,-1.4436412E-2,1.2224546E-2,-9.2475945E-3,-6.522653E-3,3.8607437E-2,-6.363388E-3,1.536681E-2,6.2356717E-3,-1.6490519E-2,9.432197E-3,2.7401388E-2,1.9382384E-2,3.1703566E-3,2.8426472E-2,-1.2576531E-2],"split_indices":[24,29,24,19,19,19,24,22,22,12,21,13,5,13,18,0,0,0,0,0,0,0,0,0,0,0,0,0,0,0,0],"split_type":[0,0,0,0,0,0,0,0,0,0,0,0,0,0,0,0,0,0,0,0,0,0,0,0,0,0,0,0,0,0,0],"sum_hessian":[6.784E3,3.784E3,3E3,2.74E3,1.044E3,1.748E3,1.252E3,2.202E3,5.38E2,9.02E2,1.42E2,9.35E2,8.13E2,7.48E2,5.04E2,6.09E2,1.593E3,2.3E1,5.15E2,8.97E2,5E0,5.1E1,9.1E1,7.76E2,1.59E2,7.53E2,6E1,6.55E2,9.3E1,4.97E2,7E0],"tree_param":{"num_deleted":"0","num_feature":"34","num_nodes":"31","size_leaf_vector":"1"}},{"base_weights":[5.091227E-3,-1.4720161E-1,3.18228E-1,-2.0645283E-1,1.1340538E-2,2.2849473E-1,4.9410692E-1,-2.241014E-1,-7.891112E-2,6.584235E-2,-9.971474E-2,8.565321E-2,2.765558E-1,5.051846E-1,-8.338567E-2,-1.2282165E-2,-8.517669E-3,-6.4836936E-3,1.6737644E-2,-1.3062541E-2,4.412098E-3,-1.2300967E-2,3.484426E-3,2.5061623E-3,4.07102E-2,8.11368E-3,1.9024616E-2,2.5722465E-2,-4.7610186E-2],"categories":[],"categories_nodes":[],"categories_segments":[],"categories_sizes":[],"default_left":[0,0,0,0,0,0,0,0,0,0,0,0,0,0,0,0,0,0,0,0,0,0,0,0,0,0,0,0,0],"id":28,"left_children":[1,3,5,7,9,11,13,15,17,19,21,23,25,27,-1,-1,-1,-1,-1,-1,-1,-1,-1,-1,-1,-1,-1,-1,-1],"loss_changes":[3.1917822E2,4.230268E1,3.4450104E1,7.360855E0,7.4271927E0,9.944466E0,1.8540054E1,3.291565E0,8.442898E0,6.052975E0,1.0030073E1,9.4591255E0,1.28378525E1,1.0427521E1,0E0,0E0,0E0,0E0,0E0,0E0,0E0,0E0,0E0,0E0,0E0,0E0,0E0,0E0,0E0],"parents":[2147483647,0,0,1,1,2,2,3,3,4,4,5,5,6,6,7,7,8,8,9,9,10,10,11,11,12,12,13,13],"right_children":[2,4,6,8,10,12,14,16,18,20,22,24,26,28,-1,-1,-1,-1,-1,-1,-1,-1,-1,-1,-1,-1,-1,-1,-1],"split_conditions":[1.1E1,4E0,2.9E1,3.185428E0,5.3076925E0,1.125E2,7.9907054E-1,1E0,3.72E2,1.35E1,6.02E2,5.132E1,1.7E1,6E0,-8.338567E-2,-1.2282165E-2,-8.517669E-3,-6.4836936E-3,1.6737644E-2,-1.3062541E-2,4.412098E-3,-1.2300967E-2,3.484426E-3,2.5061623E-3,4.07102E-2,8.11368E-3,1.9024616E-2,2.5722465E-2,-4.7610186E-2],"split_indices":[24,24,24,20,13,0,10,24,27,29,6,5,24,1,0,0,0,0,0,0,0,0,0,0,0,0,0,0,0],"split_type":[0,0,0,0,0,0,0,0,0,0,0,0,0,0,0,0,0,0,0,0,0,0,0,0,0,0,0,0,0],"sum_hessian":[6.691E3,4.502E3,2.189E3,3.277E3,1.225E3,1.451E3,7.38E2,2.878E3,3.99E2,8.22E2,4.03E2,3.66E2,1.085E3,7.35E2,3E0,2.052E3,8.26E2,3.56E2,4.3E1,5.2E1,7.7E2,2.16E2,1.87E2,3.5E2,1.6E1,5.18E2,5.67E2,7.31E2,4E0],"tree_param":{"num_deleted":"0","num_feature":"34","num_nodes":"29","size_leaf_vector":"1"}},{"base_weights":[-3.8341498E-3,-1.4899112E-1,2.780518E-1,-2.1874774E-1,-3.5667267E-2,1.6592789E-1,4.360145E-1,-2.3974943E-1,-1.3461007E-1,-9.8267004E-2,9.242671E-2,3.9392386E-2,2.434886E-1,4.4215602E-1,-5.967785E-1,-1.312981E-2,-9.304904E-3,-7.4831517E-3,2.4819503E-2,-9.932231E-3,-1.2508775E-3,-9.294058E-3,7.676221E-3,-8.730522E-3,7.8863045E-3,6.809084E-2,1.1335152E-2,2.1211969E-2,3.901803E-2,-6.91893E-2,3.257455E-2],"categories":[],"categories_nodes":[],"categories_segments":[],"categories_sizes":[],"default_left":[0,0,0,0,0,0,0,0,0,0,0,0,0,0,0,0,0,0,0,0,0,0,0,0,0,0,0,0,0,0,0],"id":29,"left_children":[1,3,5,7,9,11,13,15,17,19,21,23,25,27,29,-1,-1,-1,-1,-1,-1,-1,-1,-1,-1,-1,-1,-1,-1,-1,-1],"loss_changes":[2.7361722E2,3.488526E1,4.0185654E1,4.7952576E0,1.350447E1,1.30530815E1,6.2452393E0,2.6294098E0,5.2794275E0,8.310826E0,9.431734E0,1.2866682E1,1.5177959E1,5.3527527E0,6.795909E0,0E0,0E0,0E0,0E0,0E0,0E0,0E0,0E0,0E0,0E0,0E0,0E0,0E0,0E0,0E0,0E0],"parents":[2147483647,0,0,1,1,2,2,3,3,4,4,5,5,6,6,7,7,8,8,9,9,10,10,11,11,12,12,13,13,14,14],"right_children":[2,4,6,8,10,12,14,16,18,20,22,24,26,28,30,-1,-1,-1,-1,-1,-1,-1,-1,-1,-1,-1,-1,-1,-1,-1,-1],"split_conditions":[1E1,2E0,2.5E1,1.3595783E0,-1.6372883E-1,-8.787879E-1,6E0,1.5476923E1,1E0,2.001E1,1.3846154E0,1.5789473E-1,2.708E1,6.4E1,9.08E1,-1.312981E-2,-9.304904E-3,-7.4831517E-3,2.4819503E-2,-9.932231E-3,-1.2508775E-3,-9.294058E-3,7.676221E-3,-8.730522E-3,7.8863045E-3,6.809084E-2,1.1335152E-2,2.1211969E-2,3.901803E-2,-6.91893E-2,3.257455E-2],"split_indices":[24,24,24,19,19,19,1,16,31,28,1,22,26,24,26,0,0,0,0,0,0,0,0,0,0,0,0,0,0,0,0],"split_type":[0,0,0,0,0,0,0,0,0,0,0,0,0,0,0,0,0,0,0,0,0,0,0,0,0,0,0,0,0,0,0],"sum_hessian":[6.685E3,4.413E3,2.272E3,2.731E3,1.682E3,1.33E3,9.42E2,2.184E3,5.47E2,1.13E3,5.52E2,5.06E2,8.24E2,9.37E2,5E0,1.529E3,6.55E2,5.35E2,1.2E1,4.76E2,6.54E2,9.9E1,4.53E2,1.8E2,3.26E2,1.1E1,8.13E2,8.92E2,4.5E1,3E0,2E0],"tree_param":{"num_deleted":"0","num_feature":"34","num_nodes":"31","size_leaf_vector":"1"}},{"base_weights":[-3.709466E-3,-1.7917217E-1,2.184781E-1,-2.1175966E-1,-8.877921E-2,1.4062096E-1,4.0082854E-1,-2.2830187E-1,-1.402822E-1,-1.7036046E-1,2.7810855E-2,2.7189376E-2,1.8826225E-1,3.747899E-1,8.732638E-1,-1.2431522E-2,-7.849064E-3,-7.6015196E-3,3.197086E-2,-9.284201E-3,2.632055E-2,2.1462267E-2,-5.146483E-4,-8.872535E-4,2.2418557E-2,1.0613792E-2,-4.14007E-3,1.55824125E-2,2.4910865E-2,-4.1749958E-2,4.849447E-2],"categories":[],"categories_nodes":[],"categories_segments":[],"categories_sizes":[],"default_left":[0,0,0,0,0,0,0,0,0,0,0,0,0,0,0,0,0,0,0,0,0,0,0,0,0,0,0,0,0,0,0],"id":30,"left_children":[1,3,5,7,9,11,13,15,17,19,21,23,25,27,29,-1,-1,-1,-1,-1,-1,-1,-1,-1,-1,-1,-1,-1,-1,-1,-1],"loss_changes":[2.644397E2,1.1145325E1,4.243611E1,3.2609482E0,9.573368E0,1.1337933E1,1.0682617E1,3.2376175E0,4.9154034E0,6.418545E0,6.3523355E0,1.1779659E1,9.638187E0,6.469124E0,8.402702E0,0E0,0E0,0E0,0E0,0E0,0E0,0E0,0E0,0E0,0E0,0E0,0E0,0E0,0E0,0E0,0E0],"parents":[2147483647,0,0,1,1,2,2,3,3,4,4,5,5,6,6,7,7,8,8,9,9,10,10,11,11,12,12,13,13,14,14],"right_children":[2,4,6,8,10,12,14,16,18,20,22,24,26,28,30,-1,-1,-1,-1,-1,-1,-1,-1,-1,-1,-1,-1,-1,-1,-1,-1],"split_conditions":[6E0,2E0,2.6E1,4.14702E2,-3.427351E-2,1.3404572E2,6.5E1,1.3595783E0,5.384615E-1,1.8461152E0,3.995E1,1.0855137E0,9.823529E0,3.93354E3,2.5862068E-2,-1.2431522E-2,-7.849064E-3,-7.6015196E-3,3.197086E-2,-9.284201E-3,2.632055E-2,2.1462267E-2,-5.146483E-4,-8.872535E-4,2.2418557E-2,1.0613792E-2,-4.14007E-3,1.55824125E-2,2.4910865E-2,-4.1749958E-2,4.849447E-2],"split_indices":[24,24,24,16,20,0,24,19,22,4,0,4,13,25,21,0,0,0,0,0,0,0,0,0,0,0,0,0,0,0,0],"split_type":[0,0,0,0,0,0,0,0,0,0,0,0,0,0,0,0,0,0,0,0,0,0,0,0,0,0,0,0,0,0,0],"sum_hessian":[6.781E3,3.789E3,2.992E3,2.784E3,1.005E3,2.098E3,8.94E2,2.259E3,5.25E2,5.91E2,4.14E2,6.21E2,1.477E3,8.49E2,4.5E1,1.756E3,5.03E2,5.18E2,7E0,5.79E2,1.2E1,3.5E1,3.79E2,5.62E2,5.9E1,1.357E3,1.2E2,5.64E2,2.85E2,2E0,4.3E1],"tree_param":{"num_deleted":"0","num_feature":"34","num_nodes":"31","size_leaf_vector":"1"}},{"base_weights":[2.0981645E-3,-1.6156814E-1,2.3318325E-1,-1.9978242E-1,-7.376358E-2,1.1400206E-1,3.490085E-1,-2.1738666E-1,-1.243047E-1,-1.2034826E-1,5.3632986E-2,1.7691202E-1,-1.5688814E-2,3.099986E-1,6.3002795E-1,-1.1022097E-2,9.674395E-3,-7.2162E-3,1.3196145E-2,-6.802921E-3,1.3704854E-2,1.0310566E-2,-1.7227108E-3,6.5039718E-3,1.660263E-2,-4.164109E-3,2.5293088E-2,1.2041978E-2,2.147944E-2,-6.303259E-2,3.2422837E-2],"categories":[],"categories_nodes":[],"categories_segments":[],"categories_sizes":[],"default_left":[0,0,0,0,0,0,0,0,0,0,0,0,0,0,0,0,0,0,0,0,0,0,0,0,0,0,0,0,0,0,0],"id":31,"left_children":[1,3,5,7,9,11,13,15,17,19,21,23,25,27,29,-1,-1,-1,-1,-1,-1,-1,-1,-1,-1,-1,-1,-1,-1,-1,-1],"loss_changes":[2.5532835E2,1.3245758E1,3.8598145E1,3.6309586E0,7.1281285E0,1.1270145E1,1.5360519E1,2.8433228E0,4.102871E0,5.4842787E0,4.3348484E0,6.71385E0,1.5976647E1,1.021843E1,6.810478E0,0E0,0E0,0E0,0E0,0E0,0E0,0E0,0E0,0E0,0E0,0E0,0E0,0E0,0E0,0E0,0E0],"parents":[2147483647,0,0,1,1,2,2,3,3,4,4,5,5,6,6,7,7,8,8,9,9,10,10,11,11,12,12,13,13,14,14],"right_children":[2,4,6,8,10,12,14,16,18,20,22,24,26,28,30,-1,-1,-1,-1,-1,-1,-1,-1,-1,-1,-1,-1,-1,-1,-1,-1],"split_conditions":[7E0,1.715E1,1.8E1,1.3595783E0,8.895888E-3,6.3076925E0,4.9E1,2.2428572E1,2.09E2,1.4906249E0,1.8918918E-1,2.1515152E0,1.3692307E1,1.2222222E2,1.025E1,-1.1022097E-2,9.674395E-3,-7.2162E-3,1.3196145E-2,-6.802921E-3,1.3704854E-2,1.0310566E-2,-1.7227108E-3,6.5039718E-3,1.660263E-2,-4.164109E-3,2.5293088E-2,1.2041978E-2,2.147944E-2,-6.303259E-2,3.2422837E-2],"split_indices":[24,29,24,19,19,13,24,13,27,4,22,1,13,26,29,0,0,0,0,0,0,0,0,0,0,0,0,0,0,0,0],"split_type":[0,0,0,0,0,0,0,0,0,0,0,0,0,0,0,0,0,0,0,0,0,0,0,0,0,0,0,0,0,0,0],"sum_hessian":[6.749E3,3.951E3,2.798E3,2.752E3,1.199E3,1.38E3,1.418E3,2.23E3,5.22E2,8.78E2,3.21E2,9.29E2,4.51E2,1.247E3,1.71E2,2.214E3,1.6E1,4.97E2,2.5E1,8.45E2,3.3E1,1.17E2,2.04E2,7.15E2,2.14E2,4E2,5.1E1,7.92E2,4.55E2,1E0,1.7E2],"tree_param":{"num_deleted":"0","num_feature":"34","num_nodes":"31","size_leaf_vector":"1"}},{"base_weights":[1.5402841E-4,-1.8897183E-1,1.0478988E-1,-1.9241264E-1,6.4711916E-1,2.4737915E-1,3.00296E-2,-2.0696086E-1,-6.508763E-2,4.6196964E-2,9.0429187E-4,7.45831E-2,2.8459883E-1,1.2771511E-2,2.0716636E-1,-1.1085638E-2,-5.7916557E-3,-5.607318E-4,-1.7045317E-2,-1.4415683E-2,9.670741E-3,-6.554025E-2,5.3194533E-3,2.978496E-2,1.3256366E-2,2.6267988E-3,-2.3861693E-3,2.2714207E-2,2.688295E-3],"categories":[],"categories_nodes":[],"categories_segments":[],"categories_sizes":[],"default_left":[0,0,0,0,0,0,0,0,0,0,0,0,0,0,0,0,0,0,0,0,0,0,0,0,0,0,0,0,0],"id":32,"left_children":[1,3,5,7,9,11,13,15,17,-1,19,21,23,25,27,-1,-1,-1,-1,-1,-1,-1,-1,-1,-1,-1,-1,-1,-1],"loss_changes":[1.3245012E2,6.9828873E0,4.592657E1,4.3858643E0,1.7880173E0,9.510124E0,8.64267E0,2.8390274E0,3.6366756E0,0E0,2.7847415E-1,1.1772247E1,7.2262573E0,6.2040076E0,9.490478E0,0E0,0E0,0E0,0E0,0E0,0E0,0E0,0E0,0E0,0E0,0E0,0E0,0E0,0E0],"parents":[2147483647,0,0,1,1,2,2,3,3,4,4,5,5,6,6,7,7,8,8,10,10,11,11,12,12,13,13,14,14],"right_children":[2,4,6,8,10,12,14,16,18,-1,20,22,24,26,28,-1,-1,-1,-1,-1,-1,-1,-1,-1,-1,-1,-1,-1,-1],"split_conditions":[1E1,9.3333336E1,1.12068966E-1,2.103E7,1.57E2,-9.841481E-1,2.3499994E1,1.544077E2,4.6490714E2,4.6196964E-2,4.6919334E1,2.7027026E-2,1.414E1,2E2,3.333333E-1,-1.1085638E-2,-5.7916557E-3,-5.607318E-4,-1.7045317E-2,-1.4415683E-2,9.670741E-3,-6.554025E-2,5.3194533E-3,2.978496E-2,1.3256366E-2,2.6267988E-3,-2.3861693E-3,2.2714207E-2,2.688295E-3],"split_indices":[28,26,22,19,26,19,19,2,0,0,0,22,28,26,22,0,0,0,0,0,0,0,0,0,0,0,0,0,0],"split_type":[0,0,0,0,0,0,0,0,0,0,0,0,0,0,0,0,0,0,0,0,0,0,0,0,0,0,0,0,0],"sum_hessian":[6.691E3,2.383E3,4.308E3,2.374E3,9E0,1.481E3,2.827E3,2.13E3,2.44E2,6E0,3E0,2.63E2,1.218E3,2.577E3,2.5E2,1.832E3,2.98E2,2.05E2,3.9E1,1E0,2E0,5E0,2.58E2,7E1,1.148E3,1.555E3,1.022E3,9.5E1,1.55E2],"tree_param":{"num_deleted":"0","num_feature":"34","num_nodes":"29","size_leaf_vector":"1"}},{"base_weights":[-7.131544E-3,-1.2737635E-1,1.9604853E-1,-1.7877378E-1,-4.300254E-2,1.21359676E-1,2.8988945E-1,-1.977253E-1,-6.712148E-2,5.747457E-2,-1.0593545E-1,1.7836219E-1,-1.2604187E-1,3.3649674E-1,4.7474682E-2,-1.039668E-2,-4.0726387E-3,1.8743576E-2,-4.3078093E-3,-5.5699085E-5,1.860865E-2,-3.422829E-3,-1.3783981E-2,4.148147E-2,7.90534E-3,-3.5716396E-2,-3.4569644E-3,1.5774392E-2,3.2345768E-2,-3.0217038E-3,1.22001795E-2],"categories":[],"categories_nodes":[],"categories_segments":[],"categories_sizes":[],"default_left":[0,0,0,0,0,0,0,0,0,0,0,0,0,0,0,0,0,0,0,0,0,0,0,0,0,0,0,0,0,0,0],"id":33,"left_children":[1,3,5,7,9,11,13,15,17,19,21,23,25,27,29,-1,-1,-1,-1,-1,-1,-1,-1,-1,-1,-1,-1,-1,-1,-1,-1],"loss_changes":[1.6454567E2,1.8340454E1,1.751503E1,5.549629E0,1.01423645E1,1.9709585E1,1.2513832E1,2.6501389E0,3.2545533E0,1.1394929E1,6.2538824E0,1.4841377E1,8.721062E0,5.8609467E0,3.8320403E0,0E0,0E0,0E0,0E0,0E0,0E0,0E0,0E0,0E0,0E0,0E0,0E0,0E0,0E0,0E0,0E0],"parents":[2147483647,0,0,1,1,2,2,3,3,4,4,5,5,6,6,7,7,8,8,9,9,10,10,11,11,12,12,13,13,14,14],"right_children":[2,4,6,8,10,12,14,16,18,20,22,24,26,28,30,-1,-1,-1,-1,-1,-1,-1,-1,-1,-1,-1,-1,-1,-1,-1,-1],"split_conditions":[1.326E3,1.7E2,3.03E3,7.241069E2,9.98E1,5.05E2,3.7410345E2,1.5E-1,1.4285713E-1,1.89E2,8.689104E-1,3.7772728E1,1.4592857E2,6.30012E3,6.877795E-1,-1.039668E-2,-4.0726387E-3,1.8743576E-2,-4.3078093E-3,-5.5699085E-5,1.860865E-2,-3.422829E-3,-1.3783981E-2,4.148147E-2,7.90534E-3,-3.5716396E-2,-3.4569644E-3,1.5774392E-2,3.2345768E-2,-3.0217038E-3,1.22001795E-2],"split_indices":[25,25,25,19,26,27,26,23,22,27,9,26,26,25,9,0,0,0,0,0,0,0,0,0,0,0,0,0,0,0,0],"split_type":[0,0,0,0,0,0,0,0,0,0,0,0,0,0,0,0,0,0,0,0,0,0,0,0,0,0,0,0,0,0,0],"sum_hessian":[6.733E3,4.23E3,2.503E3,2.628E3,1.602E3,1.395E3,1.108E3,2.246E3,3.82E2,6.17E2,9.85E2,1.134E3,2.61E2,9.29E2,1.79E2,2.064E3,1.82E2,1.5E1,3.67E2,5.21E2,9.6E1,8.08E2,1.77E2,3.3E1,1.101E3,2.2E1,2.39E2,8.72E2,5.7E1,1.16E2,6.3E1],"tree_param":{"num_deleted":"0","num_feature":"34","num_nodes":"31","size_leaf_vector":"1"}},{"base_weights":[3.9044668E-3,-1.4027284E-1,1.8372361E-1,-1.6113745E-1,-4.8263792E-2,9.455523E-2,3.206371E-1,-1.9013877E-1,-8.522842E-2,-1.0446688E-1,8.855103E-2,1.4348516E-1,-1.1298795E-3,2.4702922E-1,4.261536E-1,-9.258172E-3,-1.8950092E-2,-4.7701E-3,3.427691E-2,-1.3378164E-3,-9.993911E-3,4.5078956E-2,3.1540338E-3,-7.4033076E-3,8.31757E-3,-2.2782877E-3,1.8899066E-2,1.0005019E-2,2.696698E-2,2.1812571E-2,-4.41014E-2],"categories":[],"categories_nodes":[],"categories_segments":[],"categories_sizes":[],"default_left":[0,0,0,0,0,0,0,0,0,0,0,0,0,0,0,0,0,0,0,0,0,0,0,0,0,0,0,0,0,0,0],"id":34,"left_children":[1,3,5,7,9,11,13,15,17,19,21,23,25,27,29,-1,-1,-1,-1,-1,-1,-1,-1,-1,-1,-1,-1,-1,-1,-1,-1],"loss_changes":[1.7274371E2,7.0913925E0,3.6167465E1,6.619011E0,5.2765E0,8.413473E0,8.974159E0,1.9782791E0,6.6130176E0,3.5980835E0,4.0847507E0,7.9513206E0,1.0276522E1,9.371067E0,6.712288E0,0E0,0E0,0E0,0E0,0E0,0E0,0E0,0E0,0E0,0E0,0E0,0E0,0E0,0E0,0E0,0E0],"parents":[2147483647,0,0,1,1,2,2,3,3,4,4,5,5,6,6,7,7,8,8,9,9,10,10,11,11,12,12,13,13,14,14],"right_children":[2,4,6,8,10,12,14,16,18,20,22,24,26,28,30,-1,-1,-1,-1,-1,-1,-1,-1,-1,-1,-1,-1,-1,-1,-1,-1],"split_conditions":[6E0,1.3595783E0,2.1E1,2E0,6.5E1,6.3076925E0,3.5E1,4.1E2,4.9996514E3,9E1,7.4E1,4.546154E1,1.43404255E1,5.179199E-2,7.208628E-1,-9.258172E-3,-1.8950092E-2,-4.7701E-3,3.427691E-2,-1.3378164E-3,-9.993911E-3,4.5078956E-2,3.1540338E-3,-7.4033076E-3,8.31757E-3,-2.2782877E-3,1.8899066E-2,1.0005019E-2,2.696698E-2,2.1812571E-2,-4.41014E-2],"split_indices":[24,19,24,24,27,13,24,25,11,0,26,0,13,10,10,0,0,0,0,0,0,0,0,0,0,0,0,0,0,0,0],"split_type":[0,0,0,0,0,0,0,0,0,0,0,0,0,0,0,0,0,0,0,0,0,0,0,0,0,0,0,0,0,0,0],"sum_hessian":[6.661E3,3.697E3,2.964E3,3.013E3,6.84E2,1.796E3,1.168E3,2.179E3,8.34E2,4.85E2,1.99E2,1.188E3,6.08E2,6.9E2,4.78E2,2.125E3,5.4E1,8.24E2,1E1,2.68E2,2.17E2,5E0,1.94E2,8.6E1,1.102E3,5.45E2,6.3E1,5.96E2,9.4E1,4.75E2,3E0],"tree_param":{"num_deleted":"0","num_feature":"34","num_nodes":"31","size_leaf_vector":"1"}},{"base_weights":[1.4205778E-3,-1.2019571E-1,2.1053354E-1,-1.5574394E-1,-1.2803966E-2,1.5704052E-1,3.8045835E-1,-1.7175165E-1,-3.9391324E-2,-4.681528E-2,1.4407349E-1,5.2399516E-2,2.1534167E-1,1.0504929E0,3.6368698E-1,-8.2093105E-3,-1.9862156E-2,-3.977764E-3,1.7888203E-2,-4.168962E-3,6.82878E-3,1.733225E-2,-1.519805E-3,-3.0581444E-3,9.075509E-3,1.72037E-2,8.732718E-3,5.624202E-2,2.0993948E-3,1.4749979E-2,2.497706E-2],"categories":[],"categories_nodes":[],"categories_segments":[],"categories_sizes":[],"default_left":[0,0,0,0,0,0,0,0,0,0,0,0,0,0,0,0,0,0,0,0,0,0,0,0,0,0,0,0,0,0,0],"id":35,"left_children":[1,3,5,7,9,11,13,15,17,19,21,23,25,27,29,-1,-1,-1,-1,-1,-1,-1,-1,-1,-1,-1,-1,-1,-1,-1,-1],"loss_changes":[1.7206969E2,1.6329647E1,2.2555664E1,5.979431E0,5.689168E0,1.154343E1,6.304199E0,4.7540665E0,6.2494807E0,5.885402E0,6.725625E0,9.966678E0,6.3090286E0,1.0024881E0,5.283554E0,0E0,0E0,0E0,0E0,0E0,0E0,0E0,0E0,0E0,0E0,0E0,0E0,0E0,0E0,0E0,0E0],"parents":[2147483647,0,0,1,1,2,2,3,3,4,4,5,5,6,6,7,7,8,8,9,9,10,10,11,11,12,12,13,13,14,14],"right_children":[2,4,6,8,10,12,14,16,18,20,22,24,26,28,30,-1,-1,-1,-1,-1,-1,-1,-1,-1,-1,-1,-1,-1,-1,-1,-1],"split_conditions":[9E0,5.09E2,3.2E1,1.909E1,2.2083333E0,1.85E3,2.8882353E1,3.75E2,5E0,5.999999E-1,2.9032257E-1,-4.8918572E-1,1.95E1,8.2280517E-1,2.838748E-3,-8.2093105E-3,-1.9862156E-2,-3.977764E-3,1.7888203E-2,-4.168962E-3,6.82878E-3,1.733225E-2,-1.519805E-3,-3.0581444E-3,9.075509E-3,1.72037E-2,8.732718E-3,5.624202E-2,2.0993948E-3,1.4749979E-2,2.497706E-2],"split_indices":[24,25,24,28,1,25,26,25,24,22,21,19,28,9,19,0,0,0,0,0,0,0,0,0,0,0,0,0,0,0,0],"split_type":[0,0,0,0,0,0,0,0,0,0,0,0,0,0,0,0,0,0,0,0,0,0,0,0,0,0,0,0,0,0,0],"sum_hessian":[6.764E3,4.277E3,2.487E3,3.213E3,1.064E3,1.893E3,5.94E2,2.824E3,3.89E2,8.75E2,1.89E2,6.78E2,1.215E3,1.3E1,5.81E2,2.734E3,9E1,3.54E2,3.5E1,7.3E2,1.45E2,8.7E1,1.02E2,3.61E2,3.17E2,2.9E2,9.25E2,1.2E1,1E0,3.88E2,1.93E2],"tree_param":{"num_deleted":"0","num_feature":"34","num_nodes":"31","size_leaf_vector":"1"}},{"base_weights":[-9.711232E-3,-1.2603962E-1,1.9377208E-1,-1.5420584E-1,2.9320556E-3,1.377702E-1,3.6642483E-1,-1.658498E-1,-3.458481E-2,-1.0377542E-2,6.2746805E-1,7.7823825E-2,2.2935098E-1,3.7753078E-1,-6.872087E-2,-9.012388E-3,-4.740308E-3,2.7951265E-2,-3.5343927E-3,-8.38375E-3,1.7099417E-3,3.705417E-2,-2.6919037E-2,6.5179477E-3,-5.1406957E-3,6.8667806E-3,1.4508547E-2,1.9088918E-2,-5.353216E-2],"categories":[],"categories_nodes":[],"categories_segments":[],"categories_sizes":[],"default_left":[0,0,0,0,0,0,0,0,0,0,0,0,0,0,0,0,0,0,0,0,0,0,0,0,0,0,0,0,0],"id":36,"left_children":[1,3,5,7,9,11,13,15,17,19,21,23,25,27,-1,-1,-1,-1,-1,-1,-1,-1,-1,-1,-1,-1,-1,-1,-1],"loss_changes":[1.5878505E2,1.5504585E1,2.3541573E1,4.8734665E0,6.373751E0,1.0105595E1,1.2061119E1,3.24794E0,6.7260284E0,5.2715592E0,2.5183172E0,1.0604051E1,4.0399055E0,4.062599E0,0E0,0E0,0E0,0E0,0E0,0E0,0E0,0E0,0E0,0E0,0E0,0E0,0E0,0E0,0E0],"parents":[2147483647,0,0,1,1,2,2,3,3,4,4,5,5,6,6,7,7,8,8,9,9,10,10,11,11,12,12,13,13],"right_children":[2,4,6,8,10,12,14,16,18,20,22,24,26,28,-1,-1,-1,-1,-1,-1,-1,-1,-1,-1,-1,-1,-1,-1,-1],"split_conditions":[9E0,5E0,3.2E1,3E7,3.3859649E0,2.758E3,1.1695482E4,2.1437174E-1,3.618E7,1.68E1,9.6322006E-1,8.6E0,1.7E1,6E0,-6.872087E-2,-9.012388E-3,-4.740308E-3,2.7951265E-2,-3.5343927E-3,-8.38375E-3,1.7099417E-3,3.705417E-2,-2.6919037E-2,6.5179477E-3,-5.1406957E-3,6.8667806E-3,1.4508547E-2,1.9088918E-2,-5.353216E-2],"split_indices":[24,24,24,19,1,25,16,20,19,29,17,13,24,1,0,0,0,0,0,0,0,0,0,0,0,0,0,0,0],"split_type":[0,0,0,0,0,0,0,0,0,0,0,0,0,0,0,0,0,0,0,0,0,0,0,0,0,0,0,0,0],"sum_hessian":[6.706E3,4.267E3,2.439E3,3.502E3,7.65E2,1.843E3,5.96E2,3.191E3,3.11E2,7.5E2,1.5E1,1.115E3,7.28E2,5.93E2,3E0,2.652E3,5.39E2,1.7E1,2.94E2,1.65E2,5.85E2,1.4E1,1E0,8.64E2,2.51E2,2.91E2,4.37E2,5.92E2,1E0],"tree_param":{"num_deleted":"0","num_feature":"34","num_nodes":"29","size_leaf_vector":"1"}},{"base_weights":[-6.3456E-3,-1.1659546E-1,1.6528289E-1,-1.3547109E-1,2.9961176E-2,9.156317E-2,3.113586E-1,-1.5276484E-1,-2.2582352E-2,9.1144955E-3,4.135078E-1,-5.7794083E-2,1.4472587E-1,3.2430482E-1,-6.499535E-1,-8.494958E-3,-4.188191E-3,-3.2009338E-3,1.4036039E-2,-1.8331803E-4,3.129216E-2,2.7675021E-2,-2.1241516E-2,7.716879E-4,-2.3542648E-2,8.826909E-3,-6.26697E-3,1.6591135E-2,-3.2336194E-2,-6.109795E-2,1.9762306E-2],"categories":[],"categories_nodes":[],"categories_segments":[],"categories_sizes":[],"default_left":[0,0,0,0,0,0,0,0,0,0,0,0,0,0,0,0,0,0,0,0,0,0,0,0,0,0,0,0,0,0,0],"id":37,"left_children":[1,3,5,7,9,11,13,15,17,19,21,23,25,27,29,-1,-1,-1,-1,-1,-1,-1,-1,-1,-1,-1,-1,-1,-1,-1,-1],"loss_changes":[1.2670218E2,1.1282463E1,2.8174606E1,7.0481415E0,3.7222154E0,1.3840251E1,1.1137817E1,3.6886902E0,6.063067E0,3.4941626E0,3.0518107E0,1.3860581E1,1.1062073E1,6.54377E0,7.6572943E0,0E0,0E0,0E0,0E0,0E0,0E0,0E0,0E0,0E0,0E0,0E0,0E0,0E0,0E0,0E0,0E0],"parents":[2147483647,0,0,1,1,2,2,3,3,4,4,5,5,6,6,7,7,8,8,9,9,10,10,11,11,12,12,13,13,14,14],"right_children":[2,4,6,8,10,12,14,16,18,20,22,24,26,28,30,-1,-1,-1,-1,-1,-1,-1,-1,-1,-1,-1,-1,-1,-1,-1,-1],"split_conditions":[8E0,1.077E3,2.6E1,5.2442593E1,2.7027028E-2,1.189535E2,9.7018915E-1,1.909E1,4.2E2,1.747081E0,3.562084E-1,5.853521E-1,9.428572E0,7.9907054E-1,1.61E2,-8.494958E-3,-4.188191E-3,-3.2009338E-3,1.4036039E-2,-1.8331803E-4,3.129216E-2,2.7675021E-2,-2.1241516E-2,7.716879E-4,-2.3542648E-2,8.826909E-3,-6.26697E-3,1.6591135E-2,-3.2336194E-2,-6.109795E-2,1.9762306E-2],"split_indices":[24,25,24,19,23,0,17,28,25,4,19,19,13,10,6,0,0,0,0,0,0,0,0,0,0,0,0,0,0,0,0],"split_type":[0,0,0,0,0,0,0,0,0,0,0,0,0,0,0,0,0,0,0,0,0,0,0,0,0,0,0,0,0,0,0],"sum_hessian":[6.694E3,4.076E3,2.618E3,3.611E3,4.65E2,1.741E3,8.77E2,3.131E3,4.8E2,4.42E2,2.3E1,4.57E2,1.284E3,8.66E2,1.1E1,2.507E3,6.24E2,4.23E2,5.7E1,4.34E2,8E0,2E1,3E0,3.89E2,6.8E1,1.149E3,1.35E2,8.6E2,6E0,7E0,4E0],"tree_param":{"num_deleted":"0","num_feature":"34","num_nodes":"31","size_leaf_vector":"1"}},{"base_weights":[-9.020462E-4,-8.929551E-2,2.0398855E-1,-1.2075965E-1,2.5441797E-2,1.321482E-1,2.8767294E-1,-1.5975754E-1,-8.8308245E-2,2.1697465E-1,2.6170397E-3,1.14795215E-1,5.603476E-1,2.6736173E-1,6.5489817E-1,-7.079811E-3,-1.3554494E-2,-5.5642654E-3,7.839979E-4,2.2659643E-2,-2.0793371E-3,-5.0690472E-2,4.717883E-4,7.556395E-3,-1.5951289E-2,5.3072353E-3,4.0437564E-2,1.7325327E-2,8.467723E-3,-2.5075406E-2,3.715683E-2],"categories":[],"categories_nodes":[],"categories_segments":[],"categories_sizes":[],"default_left":[0,0,0,0,0,0,0,0,0,0,0,0,0,0,0,0,0,0,0,0,0,0,0,0,0,0,0,0,0,0,0],"id":38,"left_children":[1,3,5,7,9,11,13,15,17,19,21,23,25,27,29,-1,-1,-1,-1,-1,-1,-1,-1,-1,-1,-1,-1,-1,-1,-1,-1],"loss_changes":[1.20963394E2,1.684785E1,1.206398E1,4.620285E0,4.392981E0,7.9978123E0,6.75412E0,3.3220825E0,4.7828226E0,6.554075E0,6.2402964E0,1.6503616E1,4.652833E0,6.7827835E0,5.2705803E0,0E0,0E0,0E0,0E0,0E0,0E0,0E0,0E0,0E0,0E0,0E0,0E0,0E0,0E0,0E0,0E0],"parents":[2147483647,0,0,1,1,2,2,3,3,4,4,5,5,6,6,7,7,8,8,9,9,10,10,11,11,12,12,13,13,14,14],"right_children":[2,4,6,8,10,12,14,16,18,20,22,24,26,28,30,-1,-1,-1,-1,-1,-1,-1,-1,-1,-1,-1,-1,-1,-1,-1,-1],"split_conditions":[1.2E1,9.31E2,2.5E1,-9.574392E-1,1.481875E2,1.5045455E1,6.4E1,4.05155E2,1.877E1,1.077E3,1.5038889E2,9.925926E0,1.6112123E0,3.3333328E-1,2.5862068E-2,-7.079811E-3,-1.3554494E-2,-5.5642654E-3,7.839979E-4,2.2659643E-2,-2.0793371E-3,-5.0690472E-2,4.717883E-4,7.556395E-3,-1.5951289E-2,5.3072353E-3,4.0437564E-2,1.7325327E-2,8.467723E-3,-2.5075406E-2,3.715683E-2],"split_indices":[24,25,24,19,26,13,24,11,28,25,26,13,18,21,21,0,0,0,0,0,0,0,0,0,0,0,0,0,0,0,0],"split_type":[0,0,0,0,0,0,0,0,0,0,0,0,0,0,0,0,0,0,0,0,0,0,0,0,0,0,0,0,0,0,0],"sum_hessian":[6.677E3,4.665E3,2.012E3,3.661E3,1.004E3,1.084E3,9.28E2,1.661E3,2E3,1.06E2,8.98E2,1.043E3,4.1E1,8.81E2,4.7E1,1.43E3,2.31E2,1.638E3,3.62E2,5.5E1,5.1E1,5E0,8.93E2,9.63E2,8E1,1.5E1,2.6E1,4.86E2,3.95E2,3E0,4.4E1],"tree_param":{"num_deleted":"0","num_feature":"34","num_nodes":"31","size_leaf_vector":"1"}},{"base_weights":[-1.6647652E-3,-9.0108916E-2,1.4732282E-1,-1.318132E-1,-2.5838362E-2,1.03720084E-1,2.705783E-1,-1.50916E-1,-4.6331294E-2,-4.7557224E-2,2.1763813E-1,2.193019E-1,6.3923E-2,4.8487747E-1,2.4056785E-1,1.5207434E-2,-7.6198126E-3,6.9879293E-3,-7.929986E-3,2.4873178E-4,-7.98251E-3,4.7102277E-3,4.3867122E-2,1.3045276E-2,-8.31145E-3,1.442536E-3,1.6974945E-2,2.6125235E-2,-1.7092608E-2,4.238957E-3,1.422667E-2],"categories":[],"categories_nodes":[],"categories_segments":[],"categories_sizes":[],"default_left":[0,0,0,0,0,0,0,0,0,0,0,0,0,0,0,0,0,0,0,0,0,0,0,0,0,0,0,0,0,0,0],"id":39,"left_children":[1,3,5,7,9,11,13,15,17,19,21,23,25,27,29,-1,-1,-1,-1,-1,-1,-1,-1,-1,-1,-1,-1,-1,-1,-1,-1],"loss_changes":[8.712695E1,1.1117397E1,1.3208782E1,4.101494E0,8.650995E0,8.362251E0,4.0186234E0,1.4313049E0,9.653386E0,8.83936E0,1.0828924E1,7.517767E0,1.3096048E1,2.6050072E0,3.8526E0,0E0,0E0,0E0,0E0,0E0,0E0,0E0,0E0,0E0,0E0,0E0,0E0,0E0,0E0,0E0,0E0],"parents":[2147483647,0,0,1,1,2,2,3,3,4,4,5,5,6,6,7,7,8,8,9,9,10,10,11,11,12,12,13,13,14,14],"right_children":[2,4,6,8,10,12,14,16,18,20,22,24,26,28,30,-1,-1,-1,-1,-1,-1,-1,-1,-1,-1,-1,-1,-1,-1,-1,-1],"split_conditions":[1.291E3,1.2269E2,3.891E3,2.4900757E-1,4.37925E7,1.8E1,1.2014286E2,1.1904762E-2,1.5294118E0,4.4639917E2,1.5573956E2,4.9999988E-1,1.1310869E-1,3.1121834E8,6.75E0,1.5207434E-2,-7.6198126E-3,6.9879293E-3,-7.929986E-3,2.4873178E-4,-7.98251E-3,4.7102277E-3,4.3867122E-2,1.3045276E-2,-8.31145E-3,1.442536E-3,1.6974945E-2,2.6125235E-2,-1.7092608E-2,4.238957E-3,1.422667E-2],"split_indices":[25,25,25,20,20,29,0,22,1,16,2,22,10,18,5,0,0,0,0,0,0,0,0,0,0,0,0,0,0,0,0],"split_type":[0,0,0,0,0,0,0,0,0,0,0,0,0,0,0,0,0,0,0,0,0,0,0,0,0,0,0,0,0,0,0],"sum_hessian":[6.61E3,4.148E3,2.462E3,2.515E3,1.633E3,1.82E3,6.42E2,2.055E3,4.6E2,1.5E3,1.33E2,4.65E2,1.355E3,7.7E1,5.65E2,6E0,2.049E3,1.73E2,2.87E2,1.022E3,4.78E2,1.13E2,2E1,4.2E2,4.5E1,1.203E3,1.52E2,7.4E1,3E0,1.25E2,4.4E2],"tree_param":{"num_deleted":"0","num_feature":"34","num_nodes":"31","size_leaf_vector":"1"}},{"base_weights":[5.9961516E-4,-8.52298E-2,1.9409123E-1,-1.1066718E-1,1.6365005E-2,1.4347704E-1,3.175462E-1,-1.3751613E-1,8.622526E-3,1.0470502E-1,-1.1097105E-1,1.7611086E-1,4.0911012E-3,6.124746E-1,2.7657208E-1,-7.407496E-3,-1.0938154E-3,2.3131445E-3,-8.140917E-3,6.823148E-3,-1.4095386E-2,7.338605E-2,-6.36916E-3,-7.54449E-3,9.82502E-3,-2.4317497E-2,4.91946E-3,3.278703E-2,-6.148519E-2,1.2332722E-2,2.61631E-2],"categories":[],"categories_nodes":[],"categories_segments":[],"categories_sizes":[],"default_left":[0,0,0,0,0,0,0,0,0,0,0,0,0,0,0,0,0,0,0,0,0,0,0,0,0,0,0,0,0,0,0],"id":40,"left_children":[1,3,5,7,9,11,13,15,17,19,21,23,25,27,29,-1,-1,-1,-1,-1,-1,-1,-1,-1,-1,-1,-1,-1,-1,-1,-1],"loss_changes":[1.11119194E2,1.1980064E1,1.2801498E1,1.1873974E1,1.0461819E1,6.640377E0,7.045021E0,3.717804E0,4.4085445E0,6.7791038E0,1.0058577E1,7.9171715E0,1.29047E1,6.545025E0,3.7530098E0,0E0,0E0,0E0,0E0,0E0,0E0,0E0,0E0,0E0,0E0,0E0,0E0,0E0,0E0,0E0,0E0],"parents":[2147483647,0,0,1,1,2,2,3,3,4,4,5,5,6,6,7,7,8,8,9,9,10,10,11,11,12,12,13,13,14,14],"right_children":[2,4,6,8,10,12,14,16,18,20,22,24,26,28,30,-1,-1,-1,-1,-1,-1,-1,-1,-1,-1,-1,-1,-1,-1,-1,-1],"split_conditions":[1.2E1,6E0,3.2E1,3.4755918E-1,5.25E0,9.428572E0,1.18E2,7.241069E2,2.2093844E-1,9.99999E-1,1.8836E2,9.6E1,-9.945096E-1,2.204E1,5.845E3,-7.407496E-3,-1.0938154E-3,2.3131445E-3,-8.140917E-3,6.823148E-3,-1.4095386E-2,7.338605E-2,-6.36916E-3,-7.54449E-3,9.82502E-3,-2.4317497E-2,4.91946E-3,3.278703E-2,-6.148519E-2,1.2332722E-2,2.61631E-2],"split_indices":[24,24,24,20,13,13,27,19,17,22,14,27,19,28,25,0,0,0,0,0,0,0,0,0,0,0,0,0,0,0,0],"split_type":[0,0,0,0,0,0,0,0,0,0,0,0,0,0,0,0,0,0,0,0,0,0,0,0,0,0,0,0,0,0,0],"sum_hessian":[6.689E3,4.634E3,2.055E3,3.706E3,9.28E2,1.459E3,5.96E2,3.025E3,6.81E2,5.48E2,3.8E2,1.182E3,2.77E2,7.1E1,5.25E2,2.77E3,2.55E2,5.59E2,1.22E2,5.07E2,4.1E1,3E0,3.77E2,6.9E1,1.113E3,4.4E1,2.33E2,7E1,1E0,4.7E2,5.5E1],"tree_param":{"num_deleted":"0","num_feature":"34","num_nodes":"31","size_leaf_vector":"1"}},{"base_weights":[-1.0474693E-2,-9.524071E-2,1.3911465E-1,-1.21708006E-1,-2.1132326E-2,2.4694857E-1,9.520345E-2,-1.413278E-1,-7.291285E-2,8.007665E-1,-2.9911678E-2,2.5272533E-1,-5.9356518E-2,-3.0184017E-2,1.5819524E-1,-6.449442E-3,-1.1759799E-2,2.4996551E-3,-6.1208694E-3,-4.3582607E-2,5.1602285E-2,5.64049E-5,-1.0488055E-2,1.1628655E-2,3.271092E-2,-2.560486E-3,2.193175E-2,1.0180205E-2,3.5605547E-3],"categories":[],"categories_nodes":[],"categories_segments":[],"categories_sizes":[],"default_left":[0,0,0,0,0,0,0,0,0,0,0,0,0,0,0,0,0,0,0,0,0,0,0,0,0,0,0,0,0],"id":41,"left_children":[1,3,5,7,9,11,13,15,17,19,21,23,-1,25,27,-1,-1,-1,-1,-1,-1,-1,-1,-1,-1,-1,-1,-1,-1],"loss_changes":[8.536295E1,8.425774E0,1.1506496E1,3.0206718E0,8.19217E0,6.1321945E0,1.36847725E1,2.5837975E0,5.5429263E0,5.5411325E0,6.258203E0,5.527714E0,0E0,5.739667E0,4.5396786E0,0E0,0E0,0E0,0E0,0E0,0E0,0E0,0E0,0E0,0E0,0E0,0E0,0E0,0E0],"parents":[2147483647,0,0,1,1,2,2,3,3,4,4,5,5,6,6,7,7,8,8,9,9,10,10,11,11,13,13,14,14],"right_children":[2,4,6,8,10,12,14,16,18,20,22,24,-1,26,28,-1,-1,-1,-1,-1,-1,-1,-1,-1,-1,-1,-1,-1,-1],"split_conditions":[1.342E3,4.56E2,2.85E2,2.0731707E1,2.5641024E-2,5.3568896E8,2.519E3,2.3636363E0,6.662161E1,1E1,1.544155E3,1.51404E3,-5.9356518E-2,7.000357E7,6.14E2,-6.449442E-3,-1.1759799E-2,2.4996551E-3,-6.1208694E-3,-4.3582607E-2,5.1602285E-2,5.64049E-5,-1.0488055E-2,1.1628655E-2,3.271092E-2,-2.560486E-3,2.193175E-2,1.0180205E-2,3.5605547E-3],"split_indices":[25,25,27,16,22,20,25,1,7,28,14,6,0,20,27,0,0,0,0,0,0,0,0,0,0,0,0,0,0],"split_type":[0,0,0,0,0,0,0,0,0,0,0,0,0,0,0,0,0,0,0,0,0,0,0,0,0,0,0,0,0],"sum_hessian":[6.73E3,4.296E3,2.434E3,3.165E3,1.131E3,7.03E2,1.731E3,2.256E3,9.09E2,1.1E1,1.12E3,7.01E2,2E0,5.79E2,1.152E3,1.996E3,2.6E2,2.61E2,6.48E2,1E0,1E1,9.56E2,1.64E2,6.69E2,3.2E1,5.55E2,2.4E1,7.56E2,3.96E2],"tree_param":{"num_deleted":"0","num_feature":"34","num_nodes":"29","size_leaf_vector":"1"}},{"base_weights":[1.4160722E-3,-7.132583E-2,1.6624732E-1,-1.1179162E-1,-3.3124248E-3,1.01676054E-1,2.4337472E-1,-1.2282889E-1,-1.49615E-2,-7.427843E-2,4.4046924E-2,1.22100785E-1,-2.7335665E-1,2.5387946E-1,-5.8401996E-1,-3.2578276E-3,-7.2940732E-3,-2.6826381E-3,1.2217798E-2,1.2030297E-2,-4.824122E-3,1.6217734E-3,3.7043773E-2,1.5185818E-3,1.050218E-2,-5.1101367E-3,-5.9691936E-2,1.3021807E-2,-3.2019045E-2,-8.4389806E-2,-1.4280829E-3],"categories":[],"categories_nodes":[],"categories_segments":[],"categories_sizes":[],"default_left":[0,0,0,0,0,0,0,0,0,0,0,0,0,0,0,0,0,0,0,0,0,0,0,0,0,0,0,0,0,0,0],"id":42,"left_children":[1,3,5,7,9,11,13,15,17,19,21,23,25,27,29,-1,-1,-1,-1,-1,-1,-1,-1,-1,-1,-1,-1,-1,-1,-1,-1],"loss_changes":[8.023788E1,1.2778168E1,1.017971E1,3.1092682E0,5.827718E0,8.589536E0,8.257496E0,3.464466E0,3.0130732E0,4.875452E0,8.390811E0,8.544556E0,9.015544E0,5.572834E0,7.309014E0,0E0,0E0,0E0,0E0,0E0,0E0,0E0,0E0,0E0,0E0,0E0,0E0,0E0,0E0,0E0,0E0],"parents":[2147483647,0,0,1,1,2,2,3,3,4,4,5,5,6,6,7,7,8,8,9,9,10,10,11,11,12,12,13,13,14,14],"right_children":[2,4,6,8,10,12,14,16,18,20,22,24,26,28,30,-1,-1,-1,-1,-1,-1,-1,-1,-1,-1,-1,-1,-1,-1,-1,-1],"split_conditions":[1.2E1,1.715E1,2.5E1,2.103E7,4E0,5.999999E-1,3.2411667E8,1.6666666E-1,5.8172413E1,3.893E1,1.4666667E8,-3.765326E-1,2.65E6,7.432333E-1,1.61E2,-3.2578276E-3,-7.2940732E-3,-2.6826381E-3,1.2217798E-2,1.2030297E-2,-4.824122E-3,1.6217734E-3,3.7043773E-2,1.5185818E-3,1.050218E-2,-5.1101367E-3,-5.9691936E-2,1.3021807E-2,-3.2019045E-2,-8.4389806E-2,-1.4280829E-3],"split_indices":[24,28,24,19,24,22,18,22,26,0,19,20,19,10,6,0,0,0,0,0,0,0,0,0,0,0,0,0,0,0,0],"split_type":[0,0,0,0,0,0,0,0,0,0,0,0,0,0,0,0,0,0,0,0,0,0,0,0,0,0,0,0,0,0,0],"sum_hessian":[6.69E3,4.642E3,2.048E3,2.91E3,1.732E3,1.116E3,9.32E2,2.612E3,2.98E2,6.93E2,1.039E3,1.059E3,5.7E1,9.21E2,1.1E1,7.47E2,1.865E3,2.6E2,3.8E1,4.5E1,6.48E2,1.023E3,1.6E1,5.19E2,5.4E2,4.9E1,8E0,9.15E2,6E0,3E0,8E0],"tree_param":{"num_deleted":"0","num_feature":"34","num_nodes":"31","size_leaf_vector":"1"}},{"base_weights":[1.1037004E-2,-6.372807E-2,1.8114768E-1,-1.0207373E-1,-1.0443075E-2,1.5980954E-1,5.006381E-1,-1.2103339E-1,-4.8259735E-2,4.4024978E-2,-1.4028138E-1,1.3615273E-1,3.062022E-1,-6.501182E-2,5.2505636E-1,-6.8817013E-3,-2.2988108E-3,3.5900057E-3,-5.050383E-3,1.9455446E-3,5.200484E-2,3.0290186E-2,-8.267224E-3,4.0618875E-3,1.0657737E-2,3.0268375E-2,1.2695776E-2,2.7385253E-2,-5.8217015E-2],"categories":[],"categories_nodes":[],"categories_segments":[],"categories_sizes":[],"default_left":[0,0,0,0,0,0,0,0,0,0,0,0,0,0,0,0,0,0,0,0,0,0,0,0,0,0,0,0,0],"id":43,"left_children":[1,3,5,7,9,11,13,15,17,19,21,23,25,-1,27,-1,-1,-1,-1,-1,-1,-1,-1,-1,-1,-1,-1,-1,-1],"loss_changes":[8.5478775E1,9.538858E0,1.3909164E1,2.7642593E0,1.3832013E1,6.624939E0,6.3113785E0,2.4943867E0,4.497285E0,6.9790573E0,1.0908309E1,6.9978695E0,4.0227985E0,0E0,5.497074E0,0E0,0E0,0E0,0E0,0E0,0E0,0E0,0E0,0E0,0E0,0E0,0E0,0E0,0E0],"parents":[2147483647,0,0,1,1,2,2,3,3,4,4,5,5,6,6,7,7,8,8,9,9,10,10,11,11,12,12,14,14],"right_children":[2,4,6,8,10,12,14,16,18,20,22,24,26,-1,28,-1,-1,-1,-1,-1,-1,-1,-1,-1,-1,-1,-1,-1,-1],"split_conditions":[1.2E1,2E0,5.3E1,3.017431E1,5.3076925E0,1.468E3,1.025E1,5.2442593E1,1.4615384E0,1.7956272E0,3.3946842E1,2.6E1,2.79E2,-6.501182E-2,3.6887632E8,-6.8817013E-3,-2.2988108E-3,3.5900057E-3,-5.050383E-3,1.9455446E-3,5.200484E-2,3.0290186E-2,-8.267224E-3,4.0618875E-3,1.0657737E-2,3.0268375E-2,1.2695776E-2,2.7385253E-2,-5.8217015E-2],"split_indices":[24,24,24,16,13,6,28,19,1,4,26,24,27,0,18,0,0,0,0,0,0,0,0,0,0,0,0,0,0],"split_type":[0,0,0,0,0,0,0,0,0,0,0,0,0,0,0,0,0,0,0,0,0,0,0,0,0,0,0,0,0],"sum_hessian":[6.719E3,4.668E3,2.051E3,2.714E3,1.954E3,1.924E3,1.27E2,2.006E3,7.08E2,1.377E3,5.77E2,1.658E3,2.66E2,1E0,1.26E2,1.642E3,3.64E2,2.16E2,4.92E2,1.371E3,6E0,1.8E1,5.59E2,9.69E2,6.89E2,3.8E1,2.28E2,1.25E2,1E0],"tree_param":{"num_deleted":"0","num_feature":"34","num_nodes":"29","size_leaf_vector":"1"}},{"base_weights":[-8.261916E-4,-7.002653E-2,1.5451507E-1,-9.194193E-2,1.4410625E-2,2.1442318E-1,9.375734E-2,-1.328654E-1,-6.7457974E-2,1.0384041E-1,-1.1757599E-1,1.9017494E-1,6.004701E-1,1.459192E-1,-4.7492027E-2,-6.8170684E-3,2.0550875E-2,-4.478144E-3,5.009567E-4,1.5594385E-2,2.7871928E-3,-2.3124477E-2,-2.5177028E-3,1.751317E-3,1.1311731E-2,3.3683304E-2,-3.0549431E-2,8.98102E-3,-8.96913E-3,-1.3277868E-2,7.1542524E-3],"categories":[],"categories_nodes":[],"categories_segments":[],"categories_sizes":[],"default_left":[0,0,0,0,0,0,0,0,0,0,0,0,0,0,0,0,0,0,0,0,0,0,0,0,0,0,0,0,0,0,0],"id":44,"left_children":[1,3,5,7,9,11,13,15,17,19,21,23,25,27,29,-1,-1,-1,-1,-1,-1,-1,-1,-1,-1,-1,-1,-1,-1,-1,-1],"loss_changes":[7.209809E1,8.5875225E0,7.5035286E0,3.6822872E0,1.1308192E1,9.621208E0,7.5810604E0,2.6611767E0,3.9519205E0,5.6962442E0,8.949598E0,5.4747925E0,5.820709E0,8.265477E0,1.1591191E1,0E0,0E0,0E0,0E0,0E0,0E0,0E0,0E0,0E0,0E0,0E0,0E0,0E0,0E0,0E0,0E0],"parents":[2147483647,0,0,1,1,2,2,3,3,4,4,5,5,6,6,7,7,8,8,9,9,10,10,11,11,12,12,13,13,14,14],"right_children":[2,4,6,8,10,12,14,16,18,20,22,24,26,28,30,-1,-1,-1,-1,-1,-1,-1,-1,-1,-1,-1,-1,-1,-1,-1,-1],"split_conditions":[1.2E1,6E0,1.04166664E-1,-6.6844064E-1,5.3076925E0,3.185428E0,6.857143E0,7.324441E8,1.48E2,1.1764705E-1,1.3E0,4.989307E-1,9.756097E-2,9.6813834E-1,2.2E1,-6.8170684E-3,2.0550875E-2,-4.478144E-3,5.009567E-4,1.5594385E-2,2.7871928E-3,-2.3124477E-2,-2.5177028E-3,1.751317E-3,1.1311731E-2,3.3683304E-2,-3.0549431E-2,8.98102E-3,-8.96913E-3,-1.3277868E-2,7.1542524E-3],"split_indices":[24,24,22,20,13,20,13,18,27,22,1,9,22,4,24,0,0,0,0,0,0,0,0,0,0,0,0,0,0,0,0],"split_type":[0,0,0,0,0,0,0,0,0,0,0,0,0,0,0,0,0,0,0,0,0,0,0,0,0,0,0,0,0,0,0],"sum_hessian":[6.705E3,4.639E3,2.066E3,3.683E3,9.56E2,1.039E3,1.027E3,1.377E3,2.306E3,5.7E2,3.86E2,9.79E2,6E1,7.5E2,2.77E2,1.369E3,8E0,1.794E3,5.12E2,1.06E2,4.64E2,6.2E1,3.24E2,1.85E2,7.94E2,5.7E1,3E0,6.8E2,7E1,1.29E2,1.48E2],"tree_param":{"num_deleted":"0","num_feature":"34","num_nodes":"31","size_leaf_vector":"1"}},{"base_weights":[-9.876483E-4,-8.796691E-2,1.2104611E-1,-9.90897E-2,2.2884266E-2,8.380468E-2,2.5447407E-1,-8.590787E-2,-1.7573398E-1,-5.892875E-3,4.8359913E-1,5.7493675E-1,7.598077E-2,2.6165286E-1,-8.9313847E-1,6.834277E-4,-5.0810836E-3,-6.360804E-3,-1.640164E-2,-3.869341E-3,8.719641E-3,3.5230014E-2,-2.953016E-3,4.194405E-2,-2.6604258E-3,-2.2386108E-2,4.193611E-3,1.17896125E-2,2.6581934E-2,1.8505557E-2,-7.18796E-2],"categories":[],"categories_nodes":[],"categories_segments":[],"categories_sizes":[],"default_left":[0,0,0,0,0,0,0,0,0,0,0,0,0,0,0,0,0,0,0,0,0,0,0,0,0,0,0,0,0,0,0],"id":45,"left_children":[1,3,5,7,9,11,13,15,17,19,21,23,25,27,29,-1,-1,-1,-1,-1,-1,-1,-1,-1,-1,-1,-1,-1,-1,-1,-1],"loss_changes":[7.1010414E1,4.818266E0,1.3812504E1,3.5715103E0,4.7359757E0,8.325444E0,5.2344284E0,4.744066E0,3.800661E0,4.3572016E0,2.5601096E0,5.681677E0,8.9023485E0,4.09177E0,3.2831917E0,0E0,0E0,0E0,0E0,0E0,0E0,0E0,0E0,0E0,0E0,0E0,0E0,0E0,0E0,0E0,0E0],"parents":[2147483647,0,0,1,1,2,2,3,3,4,4,5,5,6,6,7,7,8,8,9,9,10,10,11,11,12,12,13,13,14,14],"right_children":[2,4,6,8,10,12,14,16,18,20,22,24,26,28,30,-1,-1,-1,-1,-1,-1,-1,-1,-1,-1,-1,-1,-1,-1,-1,-1],"split_conditions":[7E0,1.1E3,3.2E1,1.4131885E-3,2.7027028E-2,2.708E1,6E0,1.5384614E-1,2E0,3.550931E-1,7.1753015E2,9.690963E-2,6.5E1,6.3E1,3.546E3,6.834277E-4,-5.0810836E-3,-6.360804E-3,-1.640164E-2,-3.869341E-3,8.719641E-3,3.5230014E-2,-2.953016E-3,4.194405E-2,-2.6604258E-3,-2.2386108E-2,4.193611E-3,1.17896125E-2,2.6581934E-2,1.8505557E-2,-7.18796E-2],"split_indices":[24,25,24,17,23,26,1,22,24,9,3,17,27,24,14,0,0,0,0,0,0,0,0,0,0,0,0,0,0,0,0],"split_type":[0,0,0,0,0,0,0,0,0,0,0,0,0,0,0,0,0,0,0,0,0,0,0,0,0,0,0,0,0,0,0],"sum_hessian":[6.688E3,3.905E3,2.783E3,3.549E3,3.56E2,2.177E3,6.06E2,3.03E3,5.19E2,3.36E2,2E1,3.3E1,2.144E3,6.03E2,3E0,4.13E2,2.617E3,3.95E2,1.24E2,2.41E2,9.5E1,1.4E1,6E0,2.3E1,1E1,3.1E1,2.113E3,5.52E2,5.1E1,1E0,2E0],"tree_param":{"num_deleted":"0","num_feature":"34","num_nodes":"31","size_leaf_vector":"1"}},{"base_weights":[-2.7419438E-3,-6.5893196E-2,1.2902293E-1,-9.7990036E-2,-1.4067662E-2,8.884014E-2,2.3575686E-1,-8.556801E-2,-4.0109995E-1,-6.452041E-2,4.0450238E-2,1.20204985E-1,-7.942561E-2,2.4039121E-1,-6.281029E-2,-4.5819874E-3,8.259228E-3,-2.2378845E-2,1.7335748E-2,-1.953991E-3,-9.79931E-3,1.148596E-2,4.0267545E-4,6.3227275E-3,-4.653427E-2,-1.0723088E-2,2.119999E-2,1.2237473E-2,-5.8492273E-2],"categories":[],"categories_nodes":[],"categories_segments":[],"categories_sizes":[],"default_left":[0,0,0,0,0,0,0,0,0,0,0,0,0,0,0,0,0,0,0,0,0,0,0,0,0,0,0,0,0],"id":46,"left_children":[1,3,5,7,9,11,13,15,17,19,21,23,25,27,-1,-1,-1,-1,-1,-1,-1,-1,-1,-1,-1,-1,-1,-1,-1],"loss_changes":[5.583487E1,7.5439663E0,9.303055E0,1.0512108E1,4.7776127E0,8.3534775E0,4.4090576E0,4.113716E0,3.9783611E0,3.0091405E0,5.1181154E0,8.872307E0,1.7018106E1,3.9309921E0,0E0,0E0,0E0,0E0,0E0,0E0,0E0,0E0,0E0,0E0,0E0,0E0,0E0,0E0,0E0],"parents":[2147483647,0,0,1,1,2,2,3,3,4,4,5,5,6,6,7,7,8,8,9,9,10,10,11,11,12,12,13,13],"right_children":[2,4,6,8,10,12,14,16,18,20,22,24,26,28,-1,-1,-1,-1,-1,-1,-1,-1,-1,-1,-1,-1,-1,-1,-1],"split_conditions":[1.1E1,1.655E1,3.2E1,1.587E1,5E0,1E1,4.5E2,1.505E1,2.1602295E2,1.1453169E3,1E2,3.177942E8,4.5609756E1,9.1258687E-1,-6.281029E-2,-4.5819874E-3,8.259228E-3,-2.2378845E-2,1.7335748E-2,-1.953991E-3,-9.79931E-3,1.148596E-2,4.0267545E-4,6.3227275E-3,-4.653427E-2,-1.0723088E-2,2.119999E-2,1.2237473E-2,-5.8492273E-2],"split_indices":[24,28,24,28,24,13,26,28,3,14,26,18,5,10,0,0,0,0,0,0,0,0,0,0,0,0,0,0,0],"split_type":[0,0,0,0,0,0,0,0,0,0,0,0,0,0,0,0,0,0,0,0,0,0,0,0,0,0,0,0,0],"sum_hessian":[6.708E3,4.535E3,2.173E3,2.8E3,1.735E3,1.58E3,5.93E2,2.691E3,1.09E2,9.01E2,8.34E2,1.332E3,2.48E2,5.92E2,1E0,2.628E3,6.3E1,1.03E2,6E0,7.56E2,1.45E2,1.21E2,7.13E2,1.325E3,7E0,1.96E2,5.2E1,5.91E2,1E0],"tree_param":{"num_deleted":"0","num_feature":"34","num_nodes":"29","size_leaf_vector":"1"}},{"base_weights":[4.8475913E-3,-6.6940434E-2,1.3039444E-1,-8.990099E-2,-8.424754E-3,1.1433509E-1,3.6375117E-1,-8.65076E-2,-4.5802408E-1,2.9720984E-2,-1.1069916E-1,5.7704294E-1,1.0797701E-1,1.7983739E-1,5.7008797E-1,-6.0030944E-3,-2.650313E-3,9.281139E-3,-2.8651644E-2,3.2253118E-4,1.061644E-2,-6.2303147E-3,3.3052698E-2,3.8525441E-3,4.6693385E-2,4.1078893E-3,1.1071162E-2,2.0878853E-2,-2.822936E-2,3.028516E-2,-1.0230218E-2],"categories":[],"categories_nodes":[],"categories_segments":[],"categories_sizes":[],"default_left":[0,0,0,0,0,0,0,0,0,0,0,0,0,0,0,0,0,0,0,0,0,0,0,0,0,0,0,0,0,0,0],"id":47,"left_children":[1,3,5,7,9,11,13,15,17,19,21,23,25,27,29,-1,-1,-1,-1,-1,-1,-1,-1,-1,-1,-1,-1,-1,-1,-1,-1],"loss_changes":[6.0971043E1,5.781893E0,9.181152E0,3.8216095E0,4.7395077E0,6.715906E0,5.8932877E0,3.4379215E0,2.179069E0,3.759305E0,3.6242204E0,5.45874E0,6.642565E0,1.5278995E1,2.1656532E0,0E0,0E0,0E0,0E0,0E0,0E0,0E0,0E0,0E0,0E0,0E0,0E0,0E0,0E0,0E0,0E0],"parents":[2147483647,0,0,1,1,2,2,3,3,4,4,5,5,6,6,7,7,8,8,9,9,10,10,11,11,12,12,13,13,14,14],"right_children":[2,4,6,8,10,12,14,16,18,20,22,24,26,28,30,-1,-1,-1,-1,-1,-1,-1,-1,-1,-1,-1,-1,-1,-1,-1,-1],"split_conditions":[9E0,1.9E1,5.1E1,1.865E1,3.272E1,2.708E1,3.5427E2,-6.6769546E-1,1.0666667E0,2.9766247E0,7.676667E8,1.2499999E-1,4.332E3,2.2631578E0,1.9473684E1,-6.0030944E-3,-2.650313E-3,9.281139E-3,-2.8651644E-2,3.2253118E-4,1.061644E-2,-6.2303147E-3,3.3052698E-2,3.8525441E-3,4.6693385E-2,4.1078893E-3,1.1071162E-2,2.0878853E-2,-2.822936E-2,3.028516E-2,-1.0230218E-2],"split_indices":[24,28,24,28,28,26,6,19,1,19,19,22,25,1,13,0,0,0,0,0,0,0,0,0,0,0,0,0,0,0,0],"split_type":[0,0,0,0,0,0,0,0,0,0,0,0,0,0,0,0,0,0,0,0,0,0,0,0,0,0,0,0,0,0,0],"sum_hessian":[6.763E3,4.303E3,2.46E3,3.09E3,1.213E3,2.303E3,1.57E2,3.063E3,2.7E1,8.84E2,3.29E2,3E1,2.273E3,8.4E1,7.3E1,1.529E3,1.534E3,4E0,2.3E1,7.85E2,9.9E1,3.24E2,5E0,1.3E1,1.7E1,1.853E3,4.2E2,6.4E1,2E1,7E1,3E0],"tree_param":{"num_deleted":"0","num_feature":"34","num_nodes":"31","size_leaf_vector":"1"}},{"base_weights":[-3.0870556E-3,-4.6445817E-2,1.4539802E-1,-8.70251E-2,7.167131E-3,6.0747698E-2,2.014865E-1,-9.811345E-2,3.6666714E-2,-4.9535993E-2,6.972019E-2,7.572235E-2,-1.2314721E0,1.8602963E-1,4.9515474E-1,-4.315473E-3,-1.2108086E-2,-2.9542893E-3,2.307093E-2,-4.630403E-3,4.9723024E-3,1.6859973E-2,2.173947E-3,2.4166614E-4,1.18614985E-2,-1.2519555E-2,-7.869132E-2,9.898485E-3,-2.7822718E-2,-2.542401E-2,2.647605E-2],"categories":[],"categories_nodes":[],"categories_segments":[],"categories_sizes":[],"default_left":[0,0,0,0,0,0,0,0,0,0,0,0,0,0,0,0,0,0,0,0,0,0,0,0,0,0,0,0,0,0,0],"id":48,"left_children":[1,3,5,7,9,11,13,15,17,19,21,23,25,27,29,-1,-1,-1,-1,-1,-1,-1,-1,-1,-1,-1,-1,-1,-1,-1,-1],"loss_changes":[4.3213036E1,1.1302738E1,7.190338E0,4.0592327E0,7.945082E0,1.1819677E1,4.0476265E0,4.593832E0,9.951E0,7.549142E0,7.460562E0,6.8683233E0,1.9570694E0,7.8052387E0,1.821353E0,0E0,0E0,0E0,0E0,0E0,0E0,0E0,0E0,0E0,0E0,0E0,0E0,0E0,0E0,0E0,0E0],"parents":[2147483647,0,0,1,1,2,2,3,3,4,4,5,5,6,6,7,7,8,8,9,9,10,10,11,11,12,12,13,13,14,14],"right_children":[2,4,6,8,10,12,14,16,18,20,22,24,26,28,30,-1,-1,-1,-1,-1,-1,-1,-1,-1,-1,-1,-1,-1,-1,-1,-1],